{"obs_size": 94, "action_count": 90, "hidden": [32, 32], "batch": 5, "state_dict": {"trunk.0.weight": [0.007203970104455948, -0.06213216111063957, 0.03284286707639694, 0.03236399218440056, -0.05512708052992821, -0.015458652749657631, -0.06042354181408882, 0.026762569323182106, -0.02778315730392933, 0.07246112823486328, 0.0732191875576973, 0.010507131926715374, -0.04397175461053848, -0.06058168411254883, -0.011327031999826431, -0.029027093201875687, 0.045461010187864304, -0.08807266503572464, 0.09693701565265656, -0.08090746402740479, 0.07898161560297012, -0.017911100760102272, 0.05305516719818115, 0.04019397497177124, 0.0043175402097404, 0.01923212967813015, 0.0783269926905632, 0.02652590535581112, 0.054721783846616745, -0.0797865092754364, 0.07342541962862015, 0.03549833595752716, 0.026126019656658173, 0.014248603023588657, 0.050278227776288986, 0.09472915530204773, -0.022950779646635056, -0.0574612095952034, -0.025950131937861443, -0.06286344677209854, 0.049616314470767975, -0.05097698047757149, -0.05504685267806053, 0.0889938697218895, 0.09438291192054749, 0.011862808838486671, -0.017860369756817818, -0.013314083218574524, 0.04886098951101303, -0.09631194919347763, -0.08429232984781265, 0.08239075541496277, 0.10182605683803558, -0.0061292205937206745, -0.08149801194667816, 0.002818165346980095, -0.04798372834920883, -0.0001982895191758871, 0.05048433691263199, 0.045658402144908905, -0.012094960547983646, 0.011355521157383919, 0.028068719431757927, -0.08084522187709808, -0.03496923670172691, 0.00403838325291872, -0.05885384976863861, -0.04504570737481117, 0.03464313596487045, 0.059361208230257034, 0.0014452007599174976, -0.04012070596218109, 0.05647270008921623, -0.056539539247751236, -0.024209851399064064, 0.09730122238397598, 0.018995944410562515, 0.007267525419592857, 0.034770749509334564, -0.025151625275611877, 0.08824631571769714, -0.08412441611289978, -0.02837207540869713, -0.017829913645982742, -0.04244019091129303, -0.02552780508995056, 0.06392266601324081, 0.05659346655011177, 0.005735063925385475, 0.08985614031553268, -0.07282357662916183, -0.06150352954864502, 0.046601295471191406, -0.005543881095945835, -0.09399224817752838, -0.07139090448617935, -0.06278970837593079, 0.0796475037932396, 0.04670950770378113, 0.07979167997837067, -0.07678841799497604, -0.10056003928184509, -0.0676376149058342, 0.011034301482141018, -0.020371319726109505, -0.06499746441841125, 0.07508482038974762, -0.033261846750974655, -0.0596550852060318, 0.047643378376960754, -0.027790386229753494, 0.06575451046228409, 0.024581126868724823, 0.0025446151848882437, 0.02165238745510578, -0.07750285416841507, -0.05518677830696106, -0.04847610369324684, -0.058362334966659546, 0.018289580941200256, 0.0206060279160738, -0.04285497963428497, 0.06723755598068237, -0.05738796666264534, 0.02082344889640808, -0.02945181541144848, -0.08946831524372101, -0.06716077029705048, 0.04213131591677666, 0.04081607982516289, -0.0637783333659172, -0.03216313198208809, -0.0964219719171524, 0.05544333532452583, 0.08918598294258118, 0.03372998535633087, -0.06381906569004059, 0.05440331995487213, 0.08559618145227432, -0.02110135182738304, -0.016907554119825363, 0.035699404776096344, 0.013269057497382164, -0.03408966585993767, -0.09575362503528595, -0.07232315093278885, 0.0055855996906757355, -0.005532901268452406, 0.08517109602689743, 0.0035299519076943398, -0.026557419449090958, -0.10077955573797226, -0.09483179450035095, 0.04284532740712166, 0.09186891466379166, -0.0015649589477106929, -0.09218858182430267, 0.03661952540278435, 0.08400685340166092, -0.06826496124267578, -0.027155693620443344, 0.008674634620547295, -0.058821167796850204, -0.09563777595758438, 0.04515333101153374, -0.08463631570339203, -0.025889452546834946, -0.054766736924648285, 0.0775669738650322, 0.01991480030119419, 0.047831807285547256, -0.06984466314315796, 0.08691885322332382, 0.009189976379275322, -0.057206202298402786, -0.006747253704816103, -0.07303037494421005, -0.00476096523925662, 0.057595476508140564, -0.0463668592274189, 0.08718322962522507, 0.031491946429014206, -0.018048403784632683, 0.032219383865594864, -0.01900137960910797, -0.023971883580088615, -0.06766904145479202, 0.06009897589683533, 0.061915524303913116, 0.03531631454825401, 0.061000972986221313, 0.10304363816976547, 0.09711968153715134, -0.09953603893518448, 0.023518549278378487, -0.008831229992210865, 0.035022564232349396, -0.02000325359404087, 0.02878793329000473, -0.09490065276622772, 0.047142039984464645, 0.0990920290350914, -0.018549015745520592, -0.08204197138547897, -0.08573916554450989, -0.019786642864346504, -0.001560188247822225, 0.011503447778522968, 0.012941296212375164, 0.07768980413675308, -0.018712079152464867, 0.029434282332658768, -0.05481639876961708, 0.10144464671611786, 0.03958001360297203, -0.01430433802306652, 0.06780127435922623, 0.036510907113552094, 0.017688650637865067, -0.03044789843261242, 0.012969354167580605, 0.0073740785010159016, -0.06026121601462364, 0.0014759271871298552, 0.0225231796503067, -0.06109217181801796, 0.018423909321427345, -0.03423595800995827, -0.08581040054559708, -0.06177067384123802, -0.08185911178588867, 0.023870250210165977, 0.06309188902378082, 0.0937693789601326, 0.10113117098808289, 0.04062498360872269, 0.050446849316358566, -0.01758946292102337, 0.08526546508073807, -0.039433181285858154, -0.028027739375829697, -0.03432682156562805, -0.069141685962677, -0.07949209958314896, -0.021025734022259712, 0.0833604484796524, -0.05138168856501579, -0.09363819658756256, -0.023566022515296936, 0.09346113353967667, 0.024877239018678665, -0.006519676651805639, -0.02948433719575405, 0.09056277573108673, -0.09910988062620163, 0.05844485014677048, 0.028004784137010574, 0.06465688347816467, -0.05978117510676384, -0.0338183157145977, -0.04334587976336479, 0.10008121281862259, -0.013318288139998913, -0.09835081547498703, 0.05171773582696915, 0.01988665573298931, 0.014113832265138626, -0.06878042221069336, -0.09662073105573654, 0.09345941245555878, -0.07768081873655319, -0.019599394872784615, -0.018903987482190132, 0.058904457837343216, -0.0869530588388443, -0.059034012258052826, -0.055272720754146576, -0.052006375044584274, 0.06309767812490463, 0.06313585489988327, 0.04678855836391449, 0.0841933861374855, -0.06859680265188217, -0.0004095753829460591, -0.08346810191869736, -0.00020192899683024734, -0.08815406262874603, -0.099342942237854, 0.06496650725603104, -0.04564337804913521, -0.008217992261052132, -0.03040200099349022, -0.08180728554725647, -0.010289845056831837, 0.015236373990774155, 0.08241329342126846, -0.04387563094496727, 0.098272405564785, -0.04775635898113251, 0.06602092832326889, 0.09009119123220444, 0.010664772242307663, -0.03542352095246315, 0.07629640400409698, -0.030086103826761246, -0.04415557533502579, -0.03595656529068947, -0.08412247896194458, -0.010306444019079208, -0.08390993624925613, 0.06754720956087112, -0.09933799505233765, -0.07662662118673325, 0.020447256043553352, 0.06380727142095566, 0.09864925593137741, -0.08359159529209137, 0.08472882956266403, 0.07227084785699844, -0.06766306608915329, 0.043001335114240646, -0.029013875871896744, 0.02968921698629856, -0.09130936861038208, -0.05922164395451546, -0.06538950651884079, -0.02011440508067608, -0.003752192948013544, -0.0022194974590092897, -0.060930509120225906, 0.050942666828632355, 0.0523955374956131, -0.09047842770814896, -0.09560447186231613, -0.022163571789860725, 0.028691770508885384, -0.07855842262506485, -0.009498052299022675, 0.005853813607245684, -0.07881143689155579, 0.09658502042293549, 0.07470127195119858, 0.07878027856349945, -0.04205857589840889, -0.07371708750724792, 0.01266464777290821, 0.06032842397689819, 0.05045652762055397, -0.06691388040781021, 0.08097050338983536, -0.04889778792858124, -0.018031755462288857, -0.028919752687215805, 0.049106135964393616, -0.09623502194881439, -0.06567728519439697, -0.012480485253036022, 0.0709981620311737, -0.02483419142663479, 0.06471364945173264, 0.09445557743310928, 0.0038760825991630554, -0.0694696381688118, 0.0005738064064644277, 0.040131133049726486, -0.02196604572236538, -0.10070434957742691, 0.0613841749727726, -0.04494880512356758, -0.07213941961526871, 0.05256546288728714, 0.024826692417263985, 0.07514704763889313, -0.02082892134785652, 0.06377879530191422, -0.024490656331181526, -0.06403949856758118, 0.09521504491567612, 0.10148242861032486, 0.07350610196590424, -0.028787970542907715, -0.04500177502632141, 0.0182343740016222, 0.051924142986536026, 0.013160992413759232, 0.043428342789411545, -0.004925540182739496, 0.058501213788986206, 0.04893040657043457, 0.0587499625980854, -0.0077224960550665855, -0.08488672971725464, -0.06468897312879562, -0.05147793889045715, 0.08722784370183945, -0.005200639832764864, -0.013851531781256199, -0.040236495435237885, -0.004331102129071951, 0.06952058523893356, 2.289422081958037e-05, 0.04788791015744209, 0.05906439572572708, -0.10045541077852249, 0.036070987582206726, 0.10305701941251755, -0.05226455628871918, 0.016758913174271584, 0.0023195953108370304, 0.05451851710677147, 0.02485005371272564, -0.07748956233263016, -0.07704325765371323, 0.08806870877742767, -0.04445629566907883, -0.09065229445695877, -0.0925649106502533, -0.08973320573568344, 0.023549804463982582, 0.011923487298190594, -0.05987478047609329, -0.02330051362514496, 0.01612388715147972, 0.037571605294942856, 0.042110376060009, -0.05552361160516739, 0.09719204157590866, 0.0963517501950264, -0.07324843853712082, 0.09560289233922958, -0.08449617773294449, -0.06807499378919601, 0.020363733172416687, 0.030249351635575294, 0.09171407669782639, 0.0005191774689592421, 0.06966116279363632, -0.034381646662950516, -0.075157530605793, -0.010028221644461155, 0.05354645848274231, -0.04029422253370285, -0.08730509132146835, -0.06282836943864822, 0.01827138289809227, 0.09835086762905121, 0.005701964255422354, -0.08314566314220428, -0.04617558792233467, 0.0523456446826458, -0.032460883259773254, -0.01392191182821989, 0.07673079520463943, 0.03791198134422302, 0.06314226239919662, 0.09259682148694992, -0.03394761681556702, 0.0149534298107028, -0.07738496363162994, 0.10252133756875992, -0.06913743168115616, 0.09803987294435501, 0.09443441778421402, 0.022437984123826027, -0.08917578309774399, -0.003324223682284355, -0.04250792786478996, 0.03161867707967758, 0.05832495540380478, 0.057441070675849915, 0.033124249428510666, -0.07903329282999039, -0.08675506711006165, 0.030453592538833618, -0.02262701466679573, 0.048205625265836716, 0.10024562478065491, 0.031146198511123657, -0.06210984289646149, -0.02978389337658882, 0.06355200707912445, 0.009795012883841991, 0.07033231109380722, -0.0988629013299942, -0.012709316797554493, -0.050300829112529755, 0.07837830483913422, 0.045115385204553604, -0.013828588649630547, -0.09569831192493439, -0.012160114012658596, 0.08361564576625824, -0.0027624545618891716, -0.004271825309842825, -0.09538217633962631, 0.08165878057479858, 0.08534061908721924, -0.08287397027015686, -0.073166623711586, 0.004997555166482925, -0.05901859700679779, -0.08439541608095169, 0.032368384301662445, -0.026733526960015297, 0.03575151413679123, 0.040984563529491425, 0.09184624999761581, 0.06128079444169998, -0.09695877879858017, -0.0831214115023613, 0.08266660571098328, -0.0876360535621643, 0.06304212659597397, -0.06286097317934036, 0.08276266604661942, 0.05833122879266739, -0.07119416445493698, -0.0852741077542305, -0.04522228240966797, -0.04715341329574585, -0.05853704363107681, 0.07268314808607101, 0.02533096633851528, -0.012944751419126987, -0.007004266604781151, 0.04292025789618492, 0.010563850402832031, -0.012770929373800755, 0.0915849357843399, 0.07117446511983871, 0.007232274394482374, 0.07118216156959534, -0.02223093993961811, -0.07827756553888321, 0.05923923850059509, 0.057215239852666855, 0.01672551967203617, -0.0879986435174942, 0.07445251941680908, 0.007336036302149296, -0.0543179027736187, -0.09099607914686203, -0.05355965346097946, 0.09590665251016617, 0.051157183945178986, -0.045500367879867554, 0.08535616844892502, 0.08834923803806305, 0.05126473307609558, -0.009190959855914116, 0.09665762633085251, -0.02333485521376133, -0.0430324524641037, 0.04928405210375786, -0.04303104057908058, 0.0752829983830452, -0.05486372485756874, 0.037977442145347595, -0.07587635517120361, -0.06872308999300003, 0.005228378344327211, 0.08130406588315964, -0.07905016839504242, -0.02743133343756199, 0.04797743260860443, -0.018460450693964958, -0.09251779317855835, -0.0011862452374771237, -0.03622393310070038, 0.024551481008529663, 0.04244064539670944, -0.030987758189439774, -0.05284031480550766, 0.06098258122801781, -0.08885682374238968, 0.05033884570002556, 0.0414511039853096, 0.04092957824468613, -0.07196015119552612, 0.04147658124566078, -0.0615580715239048, 0.04609327018260956, -0.04802275449037552, 0.022701721638441086, 0.0011311491252854466, -0.07131935656070709, -0.09584587812423706, -0.024329105392098427, 0.06139941141009331, -0.02359527349472046, -0.02667292207479477, -0.06404051929712296, -0.07466893643140793, -0.008374403230845928, -0.026974961161613464, 0.03690754994750023, 0.10019023716449738, -0.07091827690601349, -0.031675051897764206, 0.03826465085148811, -0.06961773335933685, -0.011430855840444565, -0.052303679287433624, 0.0655989721417427, -0.01148158684372902, 0.0084744393825531, 0.06133373826742172, -0.07307086139917374, -0.05570852383971214, 0.0799502581357956, 0.04098080098628998, -0.009238715283572674, 0.10283566266298294, 0.09041450172662735, -0.0446070171892643, -0.02883053757250309, 0.04470182582736015, -0.06431546062231064, -0.10252729058265686, -0.052062418311834335, -0.09443990141153336, 0.06521719694137573, 0.02610575594007969, -0.08679690957069397, -0.004342684522271156, 0.09882940351963043, -0.060305945575237274, -0.0653214305639267, 0.044336095452308655, -0.07286161929368973, -0.0962190106511116, 0.05834979563951492, -0.0131332166492939, 0.05466721951961517, -0.021444113925099373, 0.09699906408786774, -0.042564377188682556, 0.08571489155292511, -0.0586683452129364, -0.03625251725316048, 0.07967004179954529, 0.04572125896811485, -0.07524563372135162, -0.010272815823554993, 0.06088988482952118, -0.07987294346094131, 0.004854545928537846, 0.06317474693059921, -0.07875346392393112, 0.039235297590494156, -0.09972058236598969, -0.09645969420671463, 0.00226844591088593, -0.09320732951164246, -0.0475517138838768, 0.06103553622961044, -0.01965492218732834, -0.06898665428161621, 0.08417651802301407, -0.10079668462276459, 0.02106444165110588, -0.06749442219734192, -0.05743149295449257, 0.008367948234081268, 0.10159216821193695, -0.02738223783671856, -0.10245910286903381, 0.022238919511437416, -0.04105757549405098, -0.0689082220196724, 0.04074997827410698, 0.04073482006788254, -0.05104062333703041, 0.00674004852771759, 0.014955274760723114, 0.007619926705956459, -0.015932299196720123, -0.059607941657304764, 0.05694706365466118, 0.07793685793876648, 0.0834125503897667, 0.08565844595432281, -0.004998206626623869, 0.008266977965831757, -0.041018832474946976, -0.02445889636874199, 0.0264422707259655, 0.008231407031416893, -0.07393984496593475, -0.07379891723394394, 0.047798965126276016, 0.07868045568466187, 0.09561334550380707, 0.06301353871822357, 0.05934523791074753, 0.04323257505893707, 0.06952536851167679, -0.02644873969256878, 0.015947988256812096, 0.041635919362306595, 0.021775895729660988, -0.008897134102880955, -0.054207414388656616, -0.0733848512172699, -0.05940315127372742, 0.009995638392865658, 0.09501489996910095, -0.0375693179666996, -0.08403028547763824, -0.08982435613870621, 0.040238168090581894, 0.04284895583987236, -0.05514661967754364, -0.040017057210206985, 0.07987867295742035, -0.08731222152709961, 0.060571860522031784, 0.003463359549641609, -0.04848051443696022, 0.0996566116809845, -0.0677858516573906, 0.09300167113542557, 0.08548719435930252, 0.03544669598340988, 0.06718997657299042, 0.025026051327586174, 0.08637022972106934, 0.023007290437817574, -0.10300526767969131, -0.04351946711540222, 0.015054597519338131, 0.0724940299987793, -0.029879428446292877, 0.03744363412261009, 0.039380233734846115, 0.008911286480724812, -0.08499152213335037, 0.09882111847400665, -0.04973554238677025, 0.016273856163024902, -0.040125638246536255, 0.026324836537241936, 0.0697193592786789, 0.02174239046871662, -0.04480258747935295, 0.022854382172226906, -0.08444087952375412, 0.08670724928379059, 0.05532053858041763, 0.07391145825386047, 0.026081742718815804, -0.10271047055721283, -0.07331248372793198, -0.09369733929634094, 0.06024111062288284, 0.09995150566101074, 0.06712188571691513, -0.041578106582164764, -0.06275240331888199, -0.05972001701593399, 0.0969977006316185, -0.09915683418512344, -0.10086192935705185, 0.042840421199798584, 0.00976313091814518, -0.05313330516219139, -0.057639963924884796, -0.09916558116674423, 0.035025130957365036, -0.05040337145328522, -0.028804223984479904, 0.05409462749958038, -0.08331716060638428, 0.10142142325639725, -0.03364015370607376, 0.065815769135952, -0.016911696642637253, 0.07308074086904526, -0.057238660752773285, -0.022631920874118805, -0.05111129954457283, 0.06783875077962875, -0.09977471828460693, 0.06831030547618866, 9.552373376209289e-05, -0.06565722078084946, -0.029778974130749702, -0.012230518274009228, -0.031064162030816078, -0.04542411118745804, -0.027780426666140556, 0.010758697055280209, 0.0500212162733078, 0.017072215676307678, 0.07473073154687881, -0.016956478357315063, 0.08712343871593475, 0.03458711877465248, -0.07328983396291733, 0.06927946209907532, 0.02189951390028, 0.06612726300954819, -0.09818046540021896, -0.006680144928395748, -0.0957925021648407, -0.02379498817026615, -0.03726761043071747, -0.0636877715587616, -0.06477111577987671, 0.07961174100637436, 0.04671806842088699, 0.035026952624320984, 0.01858961582183838, 0.03263075649738312, 0.009875093586742878, -0.09971459954977036, -0.011669105850160122, 0.06560131162405014, -0.013236166909337044, 0.018034523352980614, 0.0633973702788353, 0.06056550517678261, -0.01804342493414879, 0.08396103978157043, -0.038363952189683914, -0.0028721794951707125, 0.0831383690237999, -0.05763215571641922, 0.10217616707086563, -0.049647532403469086, -0.05258718878030777, 0.07940953969955444, 0.07377507537603378, -0.07266278564929962, 0.048756904900074005, 0.00743821170181036, -0.07913074642419815, -0.030120322480797768, 0.008938521146774292, -0.09541226923465729, -0.006778201553970575, 0.025788433849811554, 0.07695315778255463, 0.07344970107078552, -0.043015941977500916, 0.04894397035241127, 0.02189549431204796, -0.00585723202675581, -0.07860718667507172, 0.02928200364112854, 0.09471013396978378, -0.086839459836483, -0.007160222623497248, 0.06021428480744362, 0.00013555788609664887, 0.07397250831127167, -0.014341372065246105, -0.05707484856247902, -0.08448822051286697, -0.06200790032744408, -0.01954631507396698, 0.06413732469081879, 0.010681813582777977, 0.008669114671647549, 0.08308279514312744, 0.0270440261811018, -0.043430447578430176, -0.034587375819683075, 0.05865864455699921, -0.04137229174375534, 0.03335469216108322, 0.044071633368730545, 0.004327314905822277, -0.07241001725196838, -0.059893086552619934, -0.09503284841775894, 0.03353312239050865, -0.0977155789732933, -0.058178309351205826, 0.09741343557834625, -0.002898405771702528, 0.047432951629161835, -0.05129694938659668, -0.024346159771084785, -0.05125671625137329, 0.0387517511844635, -0.06587251275777817, -0.04683162644505501, 0.02522946707904339, 0.004720426630228758, -0.04929152876138687, 0.008495625108480453, -0.018267275765538216, -0.09929163008928299, 0.09646428376436234, -0.08422742784023285, 0.03379068896174431, 0.0580214187502861, -0.018842030316591263, -0.028547752648591995, 0.0950944647192955, 0.07756571471691132, -0.01799490675330162, -0.03663146495819092, -0.055137261748313904, 0.08462546020746231, -0.05621679499745369, 0.03732790797948837, 0.028442170470952988, 0.07958954572677612, -0.0007349266088567674, 0.0529678575694561, -0.057047612965106964, -0.04082847386598587, -0.039102282375097275, -0.09918633103370667, -0.09268219769001007, 0.05120829865336418, 0.0460275262594223, -0.02606445550918579, -0.0942644476890564, 0.06990590691566467, 0.09982088953256607, 0.10291191935539246, -0.042874716222286224, -0.08920901268720627, 0.0666312426328659, 0.0523671954870224, 0.08071389049291611, 0.027012081816792488, 0.06997054070234299, -0.04566044360399246, -0.08372238278388977, 0.016083693131804466, 0.08800928294658661, -0.06435335427522659, 0.053671885281801224, -0.043350156396627426, -0.06375869363546371, -0.0284689012914896, 0.10150118172168732, 0.08884257078170776, 0.08437991142272949, 0.09900974482297897, -0.0034542607609182596, 0.04530693590641022, 0.03541342541575432, -0.04292188212275505, 0.06764873117208481, -0.013436374254524708, -0.03803553804755211, 0.05831676721572876, 0.09890541434288025, 0.07959387451410294, 0.005268719978630543, -0.0676165297627449, 0.09565789252519608, 0.0428866408765316, 0.08499182760715485, -0.030454330146312714, 0.06127497926354408, 0.005165720824152231, 0.07251354306936264, 0.024357901886105537, -0.043522220104932785, 0.045164529234170914, 0.09821552038192749, -0.06955128908157349, 0.09999196231365204, 0.08507783710956573, 0.08651534467935562, 0.022409630939364433, -0.03260020166635513, -0.03455602377653122, -0.01333876047283411, -0.06836327165365219, 0.03831636905670166, 0.049095772206783295, -0.021498337388038635, 0.0917358472943306, 0.034983206540346146, 0.10221359878778458, 0.09380834549665451, -0.01928274892270565, -0.08445674180984497, -0.0681811049580574, 0.09940770268440247, -0.06261130422353745, 0.007252967916429043, 0.06662953644990921, -0.03337951377034187, 0.0593094564974308, -0.06926260143518448, 0.020477429032325745, 0.04728744551539421, -0.08606890588998795, -0.03771026059985161, -0.052137259393930435, -0.019075090065598488, 0.09904744476079941, 0.09118432551622391, 0.05296504124999046, -0.048463374376297, -0.01948942430317402, 0.009667323902249336, 0.09954371303319931, -0.08624567836523056, -0.024784665554761887, -0.08806969970464706, 0.038417842239141464, -0.013491188175976276, -0.04617364704608917, -0.09431512653827667, -0.033992961049079895, -0.08929740637540817, 0.03452884778380394, -0.09390489012002945, -0.052857283502817154, 0.10294128954410553, -0.09962760657072067, -0.08486700803041458, -0.07908003032207489, -0.06612951308488846, 0.08163058757781982, -0.033120930194854736, -0.07971280813217163, 0.058152858167886734, 0.0898321121931076, 0.05121113732457161, 0.0096459174528718, 0.019236309453845024, 0.03986333683133125, 0.0912046954035759, 0.05915087088942528, -0.08037357032299042, -0.079978808760643, -0.06497728079557419, -0.044950295239686966, 0.09149016439914703, -0.10279785096645355, -0.015014772303402424, 0.07818345725536346, 0.03928016126155853, -0.05251681059598923, -0.0012210906716063619, -0.08393625169992447, -0.06561626493930817, -0.08605208247900009, -0.07535957545042038, 0.09988483786582947, -0.015997206792235374, -0.05672510340809822, -0.05042824521660805, -0.08273380994796753, -0.05571708083152771, 0.010342298075556755, -0.06314181536436081, 0.01610328070819378, 0.037589360028505325, 0.0733407512307167, -0.0584169402718544, -0.021092191338539124, 0.10193557292222977, -0.011111652478575706, -0.09201288223266602, -0.033837780356407166, 0.033154360949993134, -0.01846594735980034, 0.03640247508883476, -0.08131048083305359, 0.050480637699365616, -0.04535512253642082, -0.038691096007823944, -0.006635377183556557, 0.10024525970220566, 0.079213447868824, 0.08869551867246628, -0.01488444022834301, 0.072655089199543, -0.0013153234031051397, 0.07026227563619614, -0.03528296947479248, -0.05163463205099106, -0.07388900965452194, -0.005015850532799959, -0.04483461752533913, 0.08161081373691559, -0.0535663403570652, 0.05444706603884697, -0.05317340046167374, 0.056352145969867706, 0.003660739166662097, -0.06156182289123535, 0.005164712201803923, -0.09562958031892776, -0.009611330926418304, -0.061209384351968765, -0.09327343851327896, 0.09297190606594086, 0.06144187971949577, 0.024816425517201424, 0.06084178388118744, -0.08278049528598785, -0.05415548011660576, -0.048916760832071304, -0.06423349678516388, -0.021305887028574944, 0.07653313875198364, -0.06524565070867538, 0.019793393090367317, 0.04493667185306549, -0.05235576257109642, 0.04236309975385666, -0.028483299538493156, 0.045646414160728455, 0.09319823980331421, 0.027325911447405815, -0.06646830588579178, -0.06587719917297363, 0.08080168068408966, -0.03022276796400547, 0.09814930707216263, -0.07834762334823608, -0.05601698160171509, 0.10111308842897415, 0.004315880127251148, -0.05106362700462341, 0.00827939622104168, -0.007744468282908201, -0.09278061240911484, 0.03265881538391113, 0.055214934051036835, 0.0014494057977572083, -0.0849701315164566, -0.030828505754470825, 0.03788295015692711, -0.034496843814849854, 0.08333241939544678, -0.03218888118863106, -0.02373550273478031, 0.05881064012646675, 0.011208110488951206, 0.05933375284075737, -0.07021330296993256, 0.07570724934339523, -0.032687943428754807, 0.0009691681480035186, 0.0516233816742897, 0.03160770982503891, -0.03835705295205116, 0.059939637780189514, -0.009433587081730366, 0.04740207642316818, -0.03050079382956028, 0.007121012546122074, -0.034112364053726196, 0.06000528484582901, 0.07885351032018661, 0.024306518957018852, 0.09112370759248734, 0.03448929637670517, -0.08720468729734421, -0.05965625122189522, -0.007210019510239363, -0.08285871893167496, 0.03975989669561386, 0.09420666843652725, -0.06189761310815811, -0.031471289694309235, -0.08680995553731918, 0.026474645361304283, 0.0031020070891827345, 0.07248126715421677, -0.039977993816137314, -0.0892975926399231, 0.09272979199886322, 0.10184844583272934, -0.07144773751497269, -0.039016302675008774, -0.026491058990359306, -0.06637166440486908, -0.09747328609228134, 0.07500117272138596, 0.05978509783744812, 0.04726744070649147, -0.09162415564060211, -0.02264132723212242, 0.06329907476902008, 0.05262555181980133, -0.024926936253905296, 0.001235869829542935, 0.045349542051553726, 0.09042151272296906, 0.09602309763431549, 0.09586925059556961, 0.0918765738606453, -0.047881677746772766, 0.0974244773387909, -0.003966122400015593, -0.02619868516921997, 0.08743279427289963, -0.012890946120023727, 0.014147312380373478, -0.007815130054950714, -0.07306372374296188, -0.0782967358827591, 0.09137581288814545, 0.09752779453992844, -0.009940099902451038, -0.06648442149162292, 0.10159526765346527, 0.023319436237215996, 0.055276595056056976, -0.08734950423240662, 0.04201778024435043, 0.008184314705431461, 0.09137444943189621, 0.07874707132577896, 0.06071681156754494, 0.02631233260035515, 0.039750441908836365, 0.03546859323978424, 0.0964525043964386, 0.057331811636686325, -0.002493822481483221, 0.02952316775918007, -0.03827371448278427, 0.08229999244213104, -0.0519375205039978, 0.09420300275087357, 0.07822080701589584, -0.07931465655565262, -0.09337682276964188, -0.0024776661302894354, 0.04802830144762993, 0.08185186982154846, -0.08839930593967438, -0.02557125873863697, 0.025345709174871445, -0.0338960736989975, -0.08461426198482513, 0.02867467887699604, 0.04459243267774582, -0.01244218461215496, 0.05385034158825874, 0.017016319558024406, 0.08342159539461136, 0.027180714532732964, 0.025142624974250793, -0.019427025690674782, -0.04958491027355194, 0.04330587014555931, 0.0985339805483818, 0.03771686181426048, -0.09194178879261017, 0.06989577412605286, 0.09876260906457901, -0.0027682334184646606, -0.06857188045978546, -0.028950566425919533, 0.07065428048372269, 0.0548321008682251, -0.011214946396648884, 0.018069637939333916, -0.0021554380655288696, -0.09523648768663406, 0.07159783691167831, -0.012277621775865555, -0.08544115722179413, 0.023525606840848923, 0.055805426090955734, -0.08896240592002869, -0.005024850834161043, -0.0920611023902893, 0.028796810656785965, 0.014527477324008942, 0.053523145616054535, -0.020916808396577835, 0.09733697772026062, -0.0968988686800003, -0.023000342771410942, -0.07422745227813721, -0.07617572695016861, 0.08602967113256454, 0.056406933814287186, 0.08505669981241226, 0.04535830765962601, -0.057325322180986404, -0.02084590122103691, -0.08876984566450119, 0.09124914556741714, -0.013055534102022648, -0.004688433837145567, 0.03981432691216469, -0.013317108154296875, -0.07281814515590668, 0.005008448846638203, 0.07176697254180908, 0.0657861977815628, -0.09516245871782303, 0.092603899538517, 0.042723000049591064, -0.09834536910057068, -0.01181489322334528, -0.06663264334201813, 0.011802990920841694, -0.09224390238523483, -0.023931579664349556, 0.07817857712507248, -0.016765307635068893, 0.02003868855535984, -0.05412203446030617, 0.07206703722476959, 0.07987116277217865, 0.0012312467442825437, 0.00475860433652997, 0.09489504247903824, -0.10152006894350052, 0.04576605185866356, -0.07129643857479095, -0.04502112790942192, -0.099628746509552, 0.024672014638781548, 0.08705746382474899, -0.019623076543211937, 0.04312815144658089, -0.014851758256554604, -0.08840346336364746, -0.08963629603385925, -0.0026430406142026186, 0.07321000099182129, 0.07385409623384476, -0.0405099093914032, 0.021031562238931656, 0.09083817899227142, -0.08171545714139938, -0.10240665823221207, -0.1028514951467514, 0.05878158658742905, -0.08451176434755325, -0.08842095732688904, 0.03418979048728943, 0.05893261358141899, 0.04682851582765579, -0.09225437790155411, 0.09563244134187698, 0.07182467728853226, -0.0351015105843544, -0.07119393348693848, -0.059736959636211395, -0.05771539360284805, -0.08906969428062439, 0.052972566336393356, 0.07419101148843765, 0.03648661449551582, 0.050045475363731384, -0.05940115824341774, 0.056546758860349655, 0.08594407886266708, 0.055929966270923615, 0.08306057751178741, -0.044884536415338516, 0.04371712729334831, -0.03931166231632233, -0.025661999359726906, 0.09957704693078995, -0.007636243011802435, 0.004498960450291634, 0.007232458796352148, 0.011653871275484562, -0.044874124228954315, 0.07572142779827118, 0.08788859099149704, -0.05745528265833855, -0.09646326303482056, -0.02046440914273262, -0.04924612119793892, 0.0679653063416481, -0.034849442541599274, 0.07341846823692322, 0.023504260927438736, -0.036741435527801514, -0.05155816674232483, 0.02123073861002922, -0.0829872339963913, -0.013398479670286179, -0.1001049056649208, -0.09079854190349579, -0.06336186081171036, 0.05511176213622093, -0.07921925187110901, 0.09863560646772385, -0.0995921865105629, -0.09150141477584839, 0.045901939272880554, 0.0031920962501317263, 0.07666251808404922, -0.023599183186888695, 0.04357080161571503, 0.08254121243953705, -0.07108227908611298, -0.07236325740814209, 0.089866504073143, 0.08867479860782623, -0.004187097307294607, 0.05939836800098419, -0.0747169479727745, 0.0821981206536293, -0.03011336363852024, 0.0535125732421875, -0.027357228100299835, -0.08251218497753143, -0.036037396639585495, -0.017996419221162796, 0.004570741206407547, 0.0240040123462677, -0.08896061778068542, -0.05486796796321869, -0.041091807186603546, 0.023101141676306725, -0.06677989661693573, 0.08691687881946564, -0.04523932561278343, 0.09268274158239365, 0.026537278667092323, 0.046333156526088715, -0.02841915376484394, 0.04447392746806145, -0.04859910532832146, 0.005999515298753977, 0.06567969173192978, -0.0108717055991292, -0.010410378687083721, 0.009477728046476841, -0.06372397392988205, -0.07455646991729736, -0.015930073335766792, 0.012629346922039986, 0.08465921133756638, -0.0036808298900723457, -0.015910744667053223, 0.02487947605550289, 0.024823114275932312, -0.010048964060842991, 0.04500669240951538, 0.10269888490438461, -0.03847077488899231, -0.04896354302763939, -0.004859279841184616, 0.10023421794176102, 0.03900805115699768, -0.08884291350841522, 0.07700812816619873, 0.08416926115751266, 0.08876883238554001, 0.038038525730371475, -0.09568515419960022, 0.014729381538927555, -0.004188708029687405, -0.05804171785712242, -0.0704851821064949, -0.009147298522293568, 0.08904273062944412, 0.029016617685556412, 0.00894142221659422, 0.03911305591464043, -0.09259036183357239, 0.05475734546780586, 0.02334384247660637, -0.06030303239822388, -0.0895988941192627, -0.06886584311723709, 0.031232770532369614, 0.031051238998770714, 0.016643483191728592, -0.02039465680718422, 0.045209337025880814, -0.06601330637931824, 0.052201639860868454, -0.05268946290016174, -0.053133994340896606, -0.07596469670534134, 0.02956737019121647, -0.05488041043281555, 0.06316342204809189, 0.055356234312057495, -0.002777036977931857, 0.05928823724389076, 0.06006646528840065, 0.03968105837702751, -0.07953996956348419, -0.021055933088064194, -0.01783660240471363, 0.05552711710333824, -0.03984000161290169, 0.022304516285657883, 0.04103907197713852, 0.0679800733923912, 0.09860450774431229, -0.02275407686829567, -0.08102235198020935, -0.08545120060443878, -0.02307193912565708, 0.06264407187700272, -0.019816545769572258, -0.08510678261518478, -0.06981685757637024, -0.0581645742058754, -0.058321502059698105, 0.003683817805722356, -0.01034870371222496, -0.0561431460082531, -0.018502525985240936, -0.05176185443997383, -0.004501357674598694, 0.04409562051296234, -0.00782152358442545, -0.025298040360212326, 0.022437406703829765, 0.06663566082715988, 0.08923400193452835, -0.04370693489909172, -0.08809749782085419, 0.02310095727443695, 0.04115096107125282, 0.012235091999173164, 0.10038964450359344, 0.05209604650735855, 0.007472946308553219, 0.06900450587272644, 0.07355798780918121, -0.0568445548415184, -0.07673163712024689, -0.003406369825825095, -0.033295683562755585, -0.06800573319196701, -0.07662440836429596, 0.06610890477895737, -0.04217275232076645, -0.057110726833343506, 0.06610587984323502, 0.009255916811525822, 0.019792310893535614, -0.03220846876502037, 0.025298740714788437, 0.06568711251020432, -0.07118026912212372, -0.019468866288661957, 0.007492520846426487, 0.08386741578578949, 0.08290497958660126, 0.0706554651260376, -0.037268850952386856, 0.00016394819249399006, -0.001920384936966002, -0.07384009659290314, -0.07437896728515625, -0.020093465223908424, -0.014038472436368465, 0.03540726378560066, -0.09272251278162003, -0.04943114146590233, 0.08228598535060883, 0.017571117728948593, -0.07310362160205841, 0.049171868711709976, -0.04019103944301605, -0.05787297338247299, -0.048379890620708466, -0.05684457719326019, -0.055630262941122055, 0.017756128683686256, 0.05020154267549515, 0.054005179554224014, 0.10306303948163986, 0.08393312990665436, -0.05456522852182388, 0.08695639669895172, -0.024323387071490288, 0.05898917093873024, -0.04844583198428154, 0.08731742948293686, -0.007299826014786959, 0.035464707762002945, 0.08962277323007584, -0.021970681846141815, 0.04101363196969032, 0.02888655476272106, -0.036285605281591415, 0.0021055182442069054, 0.08558198809623718, 0.02344493567943573, 0.07556279003620148, 0.05130942910909653, 0.04853058233857155, -0.04408525675535202, -0.022705066949129105, 0.06398056447505951, 0.02404659241437912, 0.05301978066563606, 0.07857263088226318, 0.04410753399133682, 0.04147391393780708, -0.04317043349146843, 0.033762864768505096, -0.000775882916059345, 0.06826948374509811, 0.03978579118847847, -0.06432368606328964, 0.06408511847257614, -0.012951353564858437, 0.04050544649362564, -0.04620262607932091, -0.09053198248147964, 0.04187292605638504, 0.051774393767118454, 0.08076703548431396, 0.06269429624080658, 0.04879746958613396, 0.05439392477273941, 0.027523623779416084, -0.04665239527821541, 0.0225016251206398, -0.07941873371601105, -0.06172700971364975, 0.09438654780387878, 0.04000025987625122, 0.040611814707517624, -0.010300763882696629, -0.10005591064691544, -0.0295601524412632, -0.037693969905376434, -0.03730182722210884, 0.020129380747675896, -0.06593061983585358, -0.056481026113033295, -0.022106509655714035, -0.08910398930311203, -0.016999254003167152, -0.001925635151565075, -0.0069422973319888115, -0.03971780836582184, -0.028428535908460617, 0.0810658261179924, 0.057660531252622604, 0.02397569641470909, -0.07147496938705444, -0.0652339830994606, 0.047064125537872314, -0.0008317536558024585, -0.0053156642243266106, -0.032829415053129196, -0.07217774540185928, -0.05696279928088188, 0.05930233746767044, 0.07888105511665344, 0.060091856867074966, -0.06485697627067566, -0.002640470862388611, -0.08744321018457413, -0.062089014798402786, -0.07359783351421356, 0.03122781589627266, -0.09733201563358307, 0.07503756880760193, 0.0830114409327507, -0.008849648758769035, 0.026117682456970215, 0.035854414105415344, 0.09333857893943787, 0.005761326756328344, 0.09440071880817413, 0.03841646388173103, -0.030734162777662277, 0.07785039395093918, 0.029469938948750496, 0.042734090238809586, 0.013063587248325348, -0.05314100161194801, 0.0933787003159523, 0.022118190303444862, -0.01453822385519743, 0.024923445656895638, -0.0527130588889122, 0.03160824999213219, -0.10028578341007233, 0.05967309698462486, 0.06820128113031387, -0.060493096709251404, 0.04256727918982506, 0.008869579993188381, -0.03354058787226677, 0.09774705767631531, -0.0005849829758517444, -0.0658879429101944, -0.09983926266431808, 0.005509072449058294, -0.05232241749763489, -0.0947195366024971, -0.07597080618143082, 0.07598525285720825, -0.05578728765249252, -0.06542693823575974, -0.05600721761584282, 0.006873848382383585, -0.025020800530910492, -0.08190644532442093, -0.06311182677745819, -0.07140117138624191, 0.02208132855594158, 1.068478923116345e-05, 0.08826068788766861, 0.03966549038887024, 0.020669596269726753, 0.08704912662506104, 0.020135799422860146, -0.050192419439554214, 0.0857047513127327, -0.047391846776008606, -0.06949856877326965, 0.07967952638864517, 0.09183123707771301, 0.05859166011214256, -0.024460630491375923, 0.09640555828809738, 0.053743913769721985, 0.015099131502211094, 0.008376690559089184, 0.04979430139064789, -0.049084801226854324, -0.035939931869506836, 0.05834673345088959, 0.013458088040351868, -0.005662286654114723, -0.008033793419599533, 0.004473373293876648, 0.10223152488470078, 0.08895821124315262, -0.0971851646900177, -0.08030088990926743, -0.07933784276247025, -0.003874877467751503, 0.02546047605574131, -0.057289060205221176, 0.04614387825131416, -0.1006733849644661, 0.07185358554124832, -0.0024055037647485733, 0.032256897538900375, 0.07216893881559372, 0.011108922772109509, -0.05052624270319939, -0.028816914185881615, 0.09234035015106201, -0.021041104570031166, -0.004781350959092379, -0.08662934601306915, -0.06457388401031494, -0.00603350019082427, 0.026731375604867935, -0.06292451918125153, 0.0053085326217114925, 0.09389867633581161, 0.09676583111286163, 0.003893665038049221, 0.10234220325946808, 0.09898673743009567, 0.05029868707060814, 0.08300113677978516, 0.01837971806526184, -0.03971141576766968, 0.08315695077180862, 0.03238487243652344, 0.021092351526021957, -0.0025212906766682863, -0.011479963548481464, -0.08681467175483704, -0.04995103180408478, -0.06850651651620865, -0.01711469702422619, 0.05590372905135155, -0.052607305347919464, 0.0072454060427844524, -0.039809003472328186, -0.040599655359983444, 0.03125637769699097, 0.03993890434503555, 0.09159185737371445, -0.020671280100941658, 0.07776309549808502, -0.0752188116312027, 0.01359416265040636, 0.004459294956177473, 0.09902715682983398, 0.05280032008886337, -0.05392984300851822, 0.050851788371801376, 0.0008218680741265416, -0.0804876908659935, -0.05953356623649597, -0.07477916032075882, 0.08473550528287888, 0.08623991906642914, -0.07801103591918945, 0.050172291696071625, 0.09790809452533722, -0.01081960927695036, 0.07116705179214478, 0.07950837910175323, 0.05402318015694618, -0.04497961699962616, 0.08686867356300354, 0.02665829099714756, 0.049579452723264694, -0.09249131381511688, 0.03734161704778671, 0.062219951301813126, -0.07137396186590195, -0.0724819079041481, -0.03979926556348801, 0.04959193244576454, -0.04082920029759407, -0.013707957230508327, -0.10239620506763458, -0.029895376414060593, -0.03854449838399887, -0.10051614046096802, 0.0422058142721653, 0.00895258691161871, -0.09368789941072464, 0.04763135313987732, 0.0657401904463768, -0.06456898152828217, -0.03927059844136238, -0.04574530944228172, -0.033084336668252945, 0.022226549685001373, 0.07166329771280289, 0.08174222707748413, -0.07778474688529968, 0.09558222442865372, 0.0023181813303381205, -0.09610919654369354, 0.05740765109658241, 0.07882469147443771, -0.01598021574318409, -0.09590169787406921, 0.07296429574489594, -0.058122117072343826, -0.07637257128953934, -0.03050169162452221, -0.002085562562569976, 0.01644623838365078, 0.037130046635866165, 0.033196236938238144, -0.013589059934020042, -0.061744324862957, -0.033743757754564285, 0.06263172626495361, 0.022586587816476822, 0.0639050081372261, 0.003044107463210821, 0.008683069609105587, -0.09927826374769211, -0.01892533153295517, -0.056168314069509506, -0.09965039044618607, 0.07975953072309494, 0.05575218424201012, 0.09148527681827545, 0.08117479085922241, 0.06715204566717148, -0.05588487908244133, 0.08436711132526398, -0.0865788385272026, 0.02568548358976841, -0.07789403200149536, 0.061643414199352264, -0.0222963634878397, 0.08225808292627335, 0.023930449038743973, 0.06978775560855865, -0.015390768647193909, -0.08389478921890259, -0.0990733876824379, -0.09462352097034454, -0.05341237783432007, 0.09102706611156464, 0.03730090707540512, 0.010679993778467178, 0.07464049756526947, -0.08186406642198563, 0.01581699214875698, 0.055448055267333984, -0.10049639642238617, -0.09241419285535812, 0.09736362099647522, -0.02112025022506714, -0.09418902546167374, 0.0867576152086258, -0.0011895650532096624, 0.05163877457380295, 0.010383205488324165, 0.0442126989364624, 0.0747447982430458, 0.03961951658129692, -0.08444953709840775, 0.057900380343198776, -0.08255434781312943, 0.05123225972056389, -0.08692972362041473, -0.024833282455801964, -0.010915464721620083, 0.017620213329792023, 0.05724446475505829, -0.07440435886383057, -0.08808527886867523, 0.06349115818738937, -0.07038284838199615, -0.08103150129318237, -0.026433099061250687, -0.03139326348900795, -0.07912291586399078, -0.004244246520102024, 0.030693624168634415, 0.0908985286951065, 0.030485326424241066, 0.03139211982488632, 0.014822102151811123, -0.05850638821721077, -0.012572050094604492, -0.017307527363300323, 0.04024580121040344, 0.05616569519042969, 0.08974797278642654, -0.05320044979453087, 0.008009091950953007, 0.012407364323735237, -0.05282985419034958, 0.06895571947097778, 0.07818383723497391, 0.015435696579515934, -0.06424408406019211, 0.07959236204624176, 0.07889819145202637, -0.05033405125141144, -0.05618804693222046, 0.09146467596292496, -0.09072194993495941, -0.006315005477517843, -0.008382334373891354, -0.027753930538892746, -0.07567623257637024, -0.04560977593064308, -0.06150870397686958, 0.013772631995379925, 0.06771457195281982, -0.05979705974459648, 0.09218252450227737, 0.042991142719984055, -0.02413107454776764, 0.07032745331525803, -0.023037685081362724, -0.03606884926557541, -0.09404105693101883, -0.0343732014298439, -0.03503745421767235, 0.04142416641116142, -0.09292677789926529, 0.09444115310907364, -0.0023648550268262625, 0.021126706153154373, -0.025984300300478935, -0.031210392713546753, -0.06921016424894333, -0.002457956550642848, 0.0694841593503952, 0.027338625863194466, 0.03333895280957222, -0.07523641735315323, 0.0503632016479969, -0.029965940862894058, -0.07521191984415054, -0.05080410838127136, -0.0772438794374466, -0.02318129502236843, 0.0943887010216713, -0.04716929793357849, -0.035108570009469986, 0.07912278175354004, -0.03571015223860741, 0.04341237246990204, 0.07542307674884796, 0.055228862911462784, 0.05172029510140419, 0.07324948161840439, -0.002010166645050049, -0.08404868096113205, -0.05964062362909317, 0.002026335336267948, -0.010482847690582275, 0.022399744018912315, 0.04025513306260109, -0.015618985518813133, 0.046219877898693085, -0.09742914885282516, -0.0033743646927177906, -0.08784858882427216, 0.04060720279812813, 0.07178240269422531, -0.038283638656139374, -0.019576821476221085, 0.045316021889448166, -0.04600967466831207, 0.04846790060400963, -0.07026469707489014, -0.0029864415992051363, -0.004009464289993048, -0.08878488093614578, -0.011012292467057705, -0.009716629050672054, -0.0008172818925231695, 0.09752397239208221, -0.015964685007929802, 0.060060013085603714, -0.030035631731152534, -0.05485209450125694, -0.01107498724013567, -0.06046368554234505, -0.04506412521004677, -0.026747126132249832, 0.00701557844877243, -0.05730636045336723, -0.054438915103673935, -0.07515779137611389, -0.06161825731396675, -0.0910792127251625, -0.07116808742284775, -0.029819205403327942, -0.014188699424266815, 0.0674142837524414, -0.004243140108883381, -0.056057751178741455, -0.08384494483470917, -0.038494933396577835, 0.0026414545718580484, -0.08163711428642273, -0.04076923429965973, 0.007953651249408722, 0.09402946382761002, 0.0002500044065527618, -0.09823976457118988, -0.07445001602172852, -0.07740623503923416, 0.06882905215024948, 0.06346793472766876, 0.0023781710769981146, -0.06204448267817497, -0.043702829629182816, -0.05908661335706711, 0.0955217108130455, -0.08119451254606247, 0.01844334788620472, 0.045339200645685196, -0.08849816024303436, 0.04352004453539848, 0.05131728574633598, 0.026420434936881065, 0.09588334709405899, -0.04760987311601639, -0.09538695216178894, -0.06124842166900635, -0.0943598672747612, 0.03347281366586685, 0.02518489584326744, -0.047177769243717194, -0.03550281375646591, 0.059745050966739655, 0.0002114825911121443, 0.08623946458101273, -0.03949790447950363, 0.014018407091498375, 0.025721263140439987, -0.036574747413396835, 0.07722087949514389, -0.029580919072031975, 0.030875856056809425, -0.08313953876495361, 0.025594374164938927, 0.0713203027844429, -0.09705310314893723, 0.10300689935684204, 0.0077378652058541775, 0.09955762326717377, 0.06675843894481659, 0.056346844881772995, -0.005128662101924419, 0.035148270428180695, 0.033719226717948914, -0.0699767991900444, 0.049453459680080414, 0.09021220356225967, -0.03211800754070282, -0.06768365204334259, 0.08739927411079407, 0.09499763697385788, 0.013346359133720398, -0.07596930861473083, -0.004357328172773123, -0.0007157825166359544, 0.07190646976232529, -0.09468313306570053, -0.06854582577943802, -0.010015618987381458, -0.015684004873037338, 0.007234094198793173, 0.09995409846305847, 0.07850039750337601, 0.10029494762420654, -0.09813384711742401, 0.09192318469285965, -0.08008503913879395, -0.030465617775917053, 0.06030531972646713, -0.02490641549229622, -0.04575428366661072, 0.005125194787979126, 0.09815224260091782, -0.008395944721996784, -0.10025029629468918, -0.0244627445936203, -0.08588837087154388, 0.0032226997427642345, 0.07642395794391632, 0.08478014171123505, 0.018325434997677803, -0.06819519400596619, -0.05842757597565651, 0.05577535182237625, 0.042681984603405, -0.056658241897821426, 0.026418602094054222, -0.0366356335580349, -0.07515086978673935, 0.09961877763271332, 0.048188116401433945, -0.03767203539609909, 0.058828260749578476, -0.07264268398284912, 0.05523831769824028, 0.037500929087400436, -0.029927577823400497, -0.05254736170172691, 0.007562088780105114, 0.06559060513973236, 0.0073669468984007835, -0.07649081945419312, -0.06113015115261078, -0.01106775738298893, 0.04236563295125961, 0.060942742973566055, 0.07809379696846008, 0.08074818551540375, -0.009118600748479366, -0.058149661868810654, -0.07792729139328003, -0.0020514673087745905, 0.08868622034788132, 0.041279926896095276, 0.03755037114024162, 0.02144317887723446, -0.0891842395067215, -0.026080315932631493, -0.05151349678635597, -0.08494763821363449, 0.0737442746758461, 0.06674200296401978, -0.0004098581848666072, -0.06357929110527039, 0.0359516479074955, -0.07465647906064987, -0.08975377678871155, 0.023991666734218597, 0.0274033360183239, 0.03980027511715889, 0.09961038082838058, 0.07742080092430115, -0.030099382624030113, 0.06390118598937988, -0.08985200524330139, 0.06657935678958893, -0.0933205708861351, -0.03385472297668457, 0.0660412535071373, -0.009810898452997208, -0.07521092891693115, 0.03598783165216446, 0.07560323178768158, 0.03515041247010231, 0.06512560695409775, -0.03859659284353256, 0.03388124704360962, -0.06533294916152954, -0.002911463612690568, 0.00512932613492012, -0.07056726515293121, 0.014722004532814026, -0.04646852985024452, -0.047502003610134125, -0.10020511597394943, 0.03635649010539055, 0.07025524228811264, 0.1028721034526825, 0.08844345808029175, -0.08903560787439346, 0.07495776563882828, 0.09270362555980682, 0.05321262404322624, 0.06528237462043762, 0.07268709689378738, 0.06531549990177155, 0.011120393872261047, -0.07395073026418686, 0.011610222049057484, -0.08738446980714798, 0.0897170901298523, 0.09422672539949417, -0.037281084805727005, 0.10231674462556839, -0.019456448033452034, -0.07995679974555969, 0.056963007897138596, 0.08400555700063705, 0.09225331991910934, 0.050654999911785126, 0.07045295834541321, 0.05675223842263222, 0.05033895745873451, -0.08841706067323685, -0.03503536432981491, 0.014534879475831985, 0.08242598176002502, -0.011756244115531445, 0.04897860810160637, -0.09872341901063919, -0.045474573969841, 0.032705917954444885, 0.03004118800163269, 0.013773111626505852, 0.011088634841144085, 0.06029233708977699, -0.01740116998553276, 0.06798718124628067, 0.10269971191883087, -0.016196012496948242, -0.08215773105621338, 0.022257264703512192, 0.04811333492398262, 0.04986495152115822, -0.09080284088850021, -0.012832406908273697, -0.003583535784855485, 0.04155272617936134, -0.01436720509082079, 0.08464930206537247, -0.032467570155858994, 0.06612321734428406, -0.0955752581357956, 0.10161048918962479, 0.016692591831088066, -0.05313882604241371, 0.06804392486810684, -0.03335842862725258, -0.06035833805799484, -0.04286139830946922, 0.09823577851057053, 0.09640230983495712, 0.02407056838274002, -0.011935192160308361, -0.065107561647892, -0.03378842771053314, -0.09959914535284042, -0.10027065873146057, 0.005403933580964804, 0.07736874371767044, 0.00882084108889103, -0.08350925147533417, -0.03173898905515671, 0.0633152425289154, 0.022894736379384995, 0.01836596056818962, -0.09392454475164413, -0.029462747275829315, 0.08628149330615997, -0.039196085184812546, -0.04741865396499634, -0.08574377745389938, 0.05626482143998146, 0.031458329409360886, -0.012769810855388641, 0.07441038638353348, 0.061224643141031265, 0.05590061470866203, 0.05939992889761925, -0.013218547217547894, -0.03594820573925972, -0.05258359760046005, 0.01289453636854887, -0.08200434595346451, -0.037345267832279205, -0.06647126376628876, 0.03517976030707359, 0.039701197296381, -0.06480318307876587, 0.03382381424307823, 0.011523908004164696, 0.08102384209632874, 0.07844062894582748, 0.06162788346409798, 0.06974624842405319, 0.009770815260708332, 0.09070257097482681, -0.10234306752681732, 0.07636895775794983, 0.07833506166934967, 0.04678446426987648, -0.0309310145676136, -0.024119257926940918, 0.05426906421780586, -0.0007267993059940636, 0.07354365289211273, 0.03311352804303169, 0.01736263558268547, -0.027065014466643333, -0.0951467975974083, -0.07829058915376663, -0.08718819916248322, -0.09117705374956131, -0.06201586872339249, -0.02495047077536583, 0.06836608052253723, 0.017888672649860382, 0.04971509426832199, -0.07862521708011627, 0.09495821595191956, 0.09069770574569702, 0.0813976600766182, -0.033946339040994644, 0.0005782573716714978, 0.018705647438764572, -0.0405895821750164, 0.04322283715009689, -0.019794734194874763, -0.08636416494846344, -0.02824104204773903, 0.10243652760982513, 0.046324316412210464, 0.047571104019880295, 0.018442818894982338, 0.03127409517765045, 0.036189910024404526, -0.06487961113452911, 0.010890001431107521, -0.02994326688349247, -0.07164817303419113, -0.07936783134937286, -0.022873761132359505, -0.0972546637058258, -0.10092370957136154, 0.09320444613695145, 0.00640955800190568, -0.001261801109649241, -0.08273004740476608, 0.023325854912400246, 0.08240869641304016, 0.1008477509021759, -0.08701376616954803, -0.03223033994436264, 0.08131486177444458, 0.08891203999519348, 0.09924259781837463, -0.09422890096902847, -0.08655606210231781, -0.05394161120057106, 0.051131684333086014, -0.08582069724798203, 0.015591578558087349, 0.06149683892726898, 0.021680433303117752, -0.023854227736592293, 0.05310735106468201, 0.01328989863395691, 0.057062577456235886, -0.06587604433298111, 0.06790852546691895, 0.010378471575677395, -0.0821528211236, 0.028594475239515305, -0.07048824429512024, 0.08953452855348587, 0.022780733183026314, -0.07958979159593582, 7.131390157155693e-05, -0.012539737857878208, -0.03981640562415123, -0.09765542298555374, -0.06720058619976044, -0.08655288070440292, 0.019665373489260674, 0.005613412242382765, 0.012768200598657131, -0.10181187838315964, -0.06824953854084015, -0.06332434713840485, 0.011827840469777584, -0.09087353944778442, 0.06834857910871506, -0.06583116203546524, 0.024947531521320343, 0.0936061441898346, -0.03637637197971344, 0.08911619335412979, -0.09030313044786453, 0.009141531772911549, -0.09726669639348984, -0.013327878899872303, 0.09927402436733246, 0.07828515022993088, 0.010021594353020191, -0.04721494019031525, 0.05540481209754944, -0.08018428832292557, 0.06436409801244736, -0.07690724730491638, -0.08140839636325836, 0.0927475094795227, -0.0769410952925682, -0.050541941076517105, 0.017070936039090157, -0.007082256954163313, 0.00799664855003357, -0.056780777871608734, -0.03757382929325104, 0.1000356450676918, 0.07312890142202377, -0.07849495857954025, 0.0015494419494643807, -0.08143935352563858, 0.07143019139766693, 0.0009440361754968762, -0.053120408207178116, 0.09299992769956589, 0.05771062523126602, -0.01697784662246704, -0.03467949479818344, 0.012337033636868, -0.06560952216386795, 0.0014896243810653687, -0.03129354864358902, -0.07960576564073563, 0.058829762041568756, -0.06170176714658737, -0.043261926621198654, -0.07327581942081451, 0.02049851603806019, 0.05182492733001709, 0.045280035585165024, -0.024793444201350212, 0.01432456448674202, -0.08248566091060638, -0.09531670808792114, -0.031466275453567505, -0.07911884784698486, -0.024789707735180855, 0.09702078998088837, -0.08287196606397629, -0.07141989469528198, 0.05909552797675133, -0.04998638108372688, 0.03915002569556236, -0.014941048808395863, -0.08805222809314728, 0.03052232414484024, -0.02792820706963539, -0.0615839883685112, 0.07725777477025986, -0.010866147466003895, 0.030970605090260506, -0.0023152795620262623, -0.0664488673210144, 0.005609600339084864, 0.03819092735648155, -0.010385196655988693, 0.007990403100848198, 0.03411701321601868, 0.0644647404551506, 0.004137165378779173, -0.01273633074015379, -0.0645328164100647, -0.03705136850476265, -0.045453302562236786, -0.04629475623369217, -0.07145832479000092, -0.0009642007644288242, -0.06366772949695587, 0.013231519609689713, 0.027998993173241615, 0.08267252892255783, 0.003422513836994767, 0.07316933572292328, -0.06415022164583206, -0.029971977695822716, -0.039993658661842346, -0.03643328696489334, -0.0806424543261528, -0.08821805566549301, -0.07330214232206345, 0.0896880105137825, -0.04733666405081749, 0.046173855662345886, 0.03342346101999283, 0.013637258671224117, 0.019063828513026237, -0.018664568662643433, -0.03364906832575798, 0.012469345703721046, -0.09569447487592697, 0.05186454579234123, -0.00890361424535513, -0.07300136983394623, 0.09879301488399506, -0.08095613867044449, -0.036508768796920776, 0.016559874638915062, 0.06428923457860947, -0.010835310444235802, -0.011790584772825241, 0.07492903620004654, 0.08370281010866165, -0.0066010113805532455, -0.06093344837427139, -0.07726190984249115, 0.036668647080659866, -0.0685105249285698, 0.03340417891740799, 0.0018148403614759445, 0.04192792624235153, -0.07499397546052933, -0.09065607190132141, -0.04451092705130577, -0.04227818548679352, 0.10107283294200897, -0.006870454642921686, -0.024112360551953316, -0.06232826039195061, -0.02768346481025219, 0.0295557864010334, -0.057922378182411194, 0.08156980574131012, -0.066736601293087, -0.09811720252037048, 0.050974007695913315, 0.055610306560993195, 0.10034780204296112, -0.09163111448287964, 0.014368927106261253, 0.0236271433532238, -0.01960940472781658, -0.02576287090778351, 0.032545290887355804, 0.011034485884010792, 0.005734780803322792, 0.031082088127732277, 0.06921576708555222, 0.000507361488416791, 0.043252456933259964, -0.023516163229942322, 0.019311508163809776, 0.06758054345846176, 0.038725268095731735, -0.04512292146682739, -0.09731443971395493, -0.019617494195699692, 0.08765648305416107, 0.07169462740421295, 0.015816230326890945, 0.031341783702373505, -0.052651308476924896, -0.05253195762634277, 0.00271408399567008, 0.06567775458097458, 0.10152110457420349, 0.06096746772527695, -0.1001858189702034, 0.0627155601978302, 0.0035546536091715097, -0.05340646207332611, -0.10070490092039108, 0.03212999925017357, -0.0828905925154686, 0.015836922451853752, 0.09846682846546173, -0.07054374366998672, 0.03590919077396393, -0.07486750930547714, -0.03161796182394028, 0.07907358556985855, 0.045311398804187775, 0.02935916930437088, -0.05970495566725731, 0.09437718242406845, -0.06137671321630478, 0.07308978587388992, -0.07868150621652603, -0.07906056940555573, 0.055819638073444366, 0.07116612046957016, -0.07700546085834503, 0.054172828793525696, 0.013474773615598679, 0.03804772347211838, 0.02725210227072239, 0.01109592616558075, 0.04160517826676369, -0.07590402662754059, 0.054733071476221085, -0.023716149851679802, -0.05996575579047203, 0.04431631416082382, 0.08276860415935516, 0.08040503412485123, 0.08354160189628601, -0.08743911236524582, -0.0179899875074625, 0.0609256774187088, -0.03161518648266792, 0.09144046157598495, -0.03303667902946472, 0.08438778668642044, 0.015035441145300865, -0.00908756721764803, -0.012363272719085217, 0.026103051379323006, 0.08906783908605576, 0.008452430367469788, -0.07318355143070221, 0.06205259636044502, 0.0029667688068002462, -0.09927468001842499, 0.10205118358135223, -0.06860474497079849, 0.07488428801298141, -0.0886085033416748, 0.0037661606911569834, 0.0726035088300705, -0.010087498463690281, -0.09271515160799026, -0.08774887770414352, 0.029436927288770676, 0.0065806251950562, 0.08144457638263702, 0.026306921616196632, 0.049817368388175964, 0.004820500034838915, -0.03707917034626007, -0.08722327649593353, -0.05828072875738144, -0.07619573920965195, -0.06552409380674362, -0.03210747241973877, -0.035084016621112823, 0.019267059862613678, -0.09899000823497772, 0.05366020277142525, 0.043227385729551315, 0.021902747452259064, 0.0012734817573800683, -0.06276609003543854, -0.09541433304548264, -0.0011969300685450435, 0.018876738846302032, 0.008330779150128365, 0.010965114459395409, -0.07160328328609467, 0.06905001401901245, -0.07338526844978333, 0.07614965736865997, -0.08306524902582169, -0.08892641216516495, -0.0038907756097614765, -0.03893236070871353, -0.06575412303209305, -0.06697124987840652, 0.09500918537378311, -0.09074127674102783, 0.02658819407224655, 0.0826721340417862, 0.06152760237455368, 0.09405971318483353, 0.021433280780911446, -0.09547848999500275, -0.05648152902722359, 0.012053032405674458, -0.034661099314689636, 0.012562409974634647, -0.05130653828382492, -0.026704521849751472, -0.05636903643608093, 0.010710474103689194, -0.07930829375982285, -0.03973972052335739, 0.04379631206393242, -0.0027308305725455284, 0.06664169579744339, -0.039664581418037415, 0.0817394107580185, -0.019734928384423256, 0.023851044476032257, -0.0502355620265007, 0.05217919871211052, 0.017104219645261765, 0.025845631957054138, 0.06045418232679367, -0.019434193149209023, -0.10284897685050964, -0.027929240837693214, -0.025495566427707672, 0.09007872641086578, 0.011238307692110538, 0.051498446613550186, 0.05528942123055458, -0.028411371633410454, -0.015526129864156246, 0.08264253288507462, 0.09441649168729782, -0.003939318470656872, 0.09832413494586945, 0.029210848733782768, 0.0940241813659668, -0.0051788645796477795, 0.06314759701490402, 0.044921569526195526, 0.0635146051645279, 0.05165863409638405, 0.06718716025352478, -0.003446330316364765, -0.02057596482336521, -0.04696134477853775, -0.022979218512773514, 0.010202694684267044, -0.0962766781449318, 0.07591638714075089, 0.09611639380455017, 0.05218597501516342, 0.011242033913731575, -0.06556005775928497, 0.013251708820462227, -0.011632108129560947, 0.006493708118796349, 0.09150765836238861, 0.001164445304311812, -0.07974531501531601, 0.05689774453639984, -0.09713422507047653, 0.033253978937864304, 0.051532208919525146, 0.0890631154179573, -0.07901935279369354, 0.09386838227510452, -0.06968282908201218, 0.03541216999292374, -0.09051872789859772, 0.07999225705862045, -0.08692503720521927, 0.08999886363744736, 0.05459119379520416, 0.06079630181193352, -0.07561379671096802, -0.06981953978538513, -0.08647654950618744, 0.00041285829502157867, 0.012544753961265087, 0.02094588801264763, 0.01115439087152481, -0.03949110582470894, -0.07357978820800781, 0.05358125641942024, 0.0737844854593277, -0.04313185065984726, 0.03590432181954384, -0.03138619288802147, 0.08136095851659775, 0.016712743788957596, 0.0639730766415596, 0.00944575946778059, 0.0359395369887352, 0.05673705413937569, -0.05669187009334564, 0.01968548819422722, 0.08026734739542007, -0.05078247934579849, 0.01953570544719696, -0.09958721697330475, 0.04748161882162094, -0.013350109569728374, -0.004434335045516491, 0.0558706633746624, 0.08213840425014496, 0.00929954182356596, -0.02369082160294056, 0.023331042379140854, -0.020366733893752098, -0.09668093919754028, 0.10223586112260818, 0.07022275775671005, -0.08151178807020187, 0.0664081797003746, 0.0490914061665535, 0.0560627207159996, -0.09460987150669098, -0.000590073352213949, -0.06585076451301575, -0.09975748509168625, -0.06910590082406998, -0.08627493679523468, 0.04303668439388275, -0.021004648879170418, -0.05261087045073509, 0.001058519585058093, 0.08003326505422592, 0.026155490428209305, -0.04842722788453102, 0.09346788376569748, -0.0744793713092804, -0.07985636591911316, 0.06110185757279396, -0.09811748564243317, -0.08445345610380173, 0.08934858441352844, 0.09278987348079681, 0.07901286333799362, -0.03609122708439827, -0.09746956080198288, 0.0937085747718811, -0.0901036337018013, -0.03775181993842125, 0.05834849178791046, -0.010888869874179363, 0.0737241730093956, 0.10219832509756088, 0.005998334847390652, 0.057424385100603104, 0.09567755460739136, 0.00553863076493144, -0.05211062729358673, 0.0035425915848463774, -0.03554164245724678, 0.06296813488006592, -0.005723223090171814, 0.07790905982255936, -0.04226633533835411, -0.07831023633480072, -0.06745728850364685, 0.06372665613889694, -0.05984902009367943, 0.039662256836891174, 0.0691894069314003, -0.026030506938695908, 0.008266177959740162, -0.04899503290653229, 0.09813612699508667, 0.01366652175784111, -0.08491425961256027, -0.0706590861082077, -0.04761706292629242, 0.07478354126214981, -0.06468315422534943, -0.017177734524011612, -0.07624858617782593, -0.06584305316209793, -0.07958415895700455, 0.07614699006080627, -0.05691355839371681, -0.0908597931265831, -0.008711176924407482, -0.08399105072021484, -0.08173990249633789, -0.032243337482213974, -0.04809204116463661, -0.07950852066278458, -0.062233153730630875, -0.0768691748380661, 0.023150667548179626, -0.01882493868470192, -0.0869571790099144, 0.02605748362839222, -0.07529894262552261, 0.0730486810207367, -0.1023566871881485, -0.07533804327249527, -0.018585054203867912, -0.07585041970014572, 0.053088992834091187, -0.05837173014879227, 0.002859527477994561, 0.0948454812169075, 0.0034122716169804335, 0.05476068705320358, -0.0964149609208107, 0.0635971948504448, 0.049889348447322845, -0.03818115219473839, -0.02132728137075901, -0.019742995500564575, -0.09380346536636353, 0.05053829029202461, 0.006021733395755291, -0.05669518932700157, 0.06922652572393417, -0.019900966435670853, -0.03181076794862747, 0.06086531654000282, -0.07597704976797104, -0.09104518592357635, -0.08341312408447266, -0.05236980319023132, 0.0831272155046463, -0.012783249840140343, 0.03605983406305313, -0.061725180596113205, 0.003535275813192129, 0.09716951102018356, 0.06417427957057953, -0.007013426627963781, -0.024674473330378532, -0.030207017436623573, -0.03560555353760719, 0.007119881454855204, 0.08688918501138687, -0.011867973022162914, 0.01723681576550007, -0.06893344968557358, 0.0952456146478653, 0.01619054190814495, 0.09480579197406769, 0.07820102572441101, -0.06543319672346115, -0.07704049348831177, 0.08971459418535233, -0.03628277778625488, 0.03246945142745972, -0.08280942589044571, 0.027059726417064667, -0.06524977087974548, 0.014503993093967438, 0.10281965136528015, -0.05329513922333717, 0.047948651015758514, 0.0695643499493599, 0.023757241666316986, -0.005685230251401663, 0.021603943780064583, -0.023220296949148178, -0.10130217671394348, 0.07083673775196075, -0.024278337135910988, 0.09746898710727692, 0.08919645845890045, -0.0154162822291255, 0.07038334757089615, -0.023638123646378517, -0.0013961539370939136, -0.0871410220861435, 0.10033829510211945, 0.054530296474695206, -0.08755193650722504, 0.03737699240446091, -0.026508236303925514, 0.0656745582818985, 0.00809613149613142, -0.02593231573700905, -0.013637037016451359, -0.018572647124528885, -0.03892898932099342, -0.06740368157625198, -0.03286858648061752, 0.01463366113603115, -0.0918075367808342, 0.08315353095531464, -0.004406658001244068, 0.07559296488761902, -0.05789797008037567, 0.05095411092042923, 0.030709708109498024, -0.025513382628560066, -0.04239553585648537, 0.03277068957686424, -0.05537017807364464, -0.10228446871042252, 0.05464005842804909, 0.07937460392713547, 0.04656362161040306, -0.08322765678167343, -0.0012406036257743835, 0.010776649229228497, 0.09345623850822449, -0.06831925362348557, 0.011381624266505241], "trunk.0.bias": [-0.006168381776660681, 0.06822852790355682, -0.09120996296405792, 0.050430040806531906, 0.05788562819361687, 0.09076792746782303, 0.0715188980102539, -0.053128644824028015, -0.04351291432976723, -0.04604630172252655, 0.025747673586010933, -0.0005306614912115037, -0.0791986957192421, -0.1006537675857544, -0.009664078243076801, -0.10033351927995682, -0.023644786328077316, -0.006591199431568384, -0.0011154477251693606, -0.09626524150371552, 0.04827701300382614, 0.021229753270745277, 0.01674996316432953, -0.013813895173370838, 0.08088315278291702, 0.08223032206296921, -0.06271234899759293, 0.027365872636437416, -0.07369427382946014, -0.0649896189570427, -0.043069858103990555, -0.035173602402210236], "trunk.2.weight": [0.16864177584648132, 0.16281312704086304, -0.06360271573066711, 0.09926343709230423, 0.17281831800937653, 0.08898936212062836, 0.11386167258024216, 0.1271258145570755, 0.14222970604896545, 0.008557896129786968, 0.11721394211053848, 0.12973681092262268, -0.06259851902723312, -0.10241852700710297, 0.029263293370604515, -0.11248656362295151, 0.0377117358148098, -0.06871451437473297, -0.12044517695903778, 0.14907993376255035, 0.16718712449073792, 0.10441645234823227, 0.1626591682434082, 0.0136448098346591, 0.05131148919463158, -0.12573611736297607, -0.01800174079835415, -0.17546263337135315, 0.07553168386220932, -0.07432471960783005, -0.07776162773370743, 0.13120205700397491, 0.1573539525270462, 0.09229019284248352, 0.015117188915610313, 0.1111040860414505, 0.1152365654706955, 0.05572076514363289, 0.046010490506887436, 0.026182128116488457, 0.10548710823059082, -0.14091427624225616, 0.06614983826875687, 0.03701186552643776, 0.17233525216579437, -0.08253859728574753, -0.03685600683093071, 0.14555105566978455, 0.08228704333305359, -0.07625970244407654, -0.15861816704273224, -0.08288407325744629, 0.07085898518562317, 0.17182448506355286, 0.17102283239364624, -0.09132863581180573, -0.1176355853676796, 0.10810906440019608, -0.018034720793366432, 0.12300298362970352, -0.13615410029888153, 0.060705918818712234, -0.05131690576672554, -0.024293169379234314, -0.09702356159687042, -0.17526023089885712, -0.11509674042463303, -0.01131545938551426, -0.14432574808597565, -0.039696913212537766, -0.05256965756416321, 0.012079349718987942, 0.1485031694173813, -0.016900191083550453, 0.01389783900231123, -0.1743953377008438, 0.027365125715732574, -0.15899868309497833, 0.04479324817657471, -0.1372004896402359, -0.16336484253406525, -0.08183333277702332, 0.12304580211639404, 0.08654998242855072, 0.15639805793762207, -0.005573077592998743, -0.07131783664226532, 0.038607776165008545, -0.11112682521343231, 0.11035094410181046, 0.16295354068279266, -0.09999114274978638, 0.16341856122016907, -0.06976772099733353, 0.08870210498571396, -0.061327118426561356, -0.07695036381483078, 0.042074546217918396, 0.05494273453950882, 0.04120326414704323, -0.03136703372001648, 0.15110519528388977, -0.08110933005809784, 0.022961623966693878, 0.07169969379901886, -0.17330743372440338, 0.07301104813814163, -0.10767630487680435, 0.07683659344911575, -0.1195269227027893, -0.01688244752585888, -0.14560650289058685, 0.03760999068617821, 0.16088929772377014, 0.11384769529104233, -0.09839130938053131, 0.132330060005188, 0.036434873938560486, 0.0006881316076032817, -0.04738679528236389, 0.16950200498104095, -0.13308663666248322, 0.1380135416984558, 0.13412465155124664, 0.036423537880182266, 0.055982183665037155, -0.09403810650110245, 0.07871783524751663, 0.0071680196560919285, -0.08259624987840652, 0.04869256913661957, 0.1661912202835083, 0.050042808055877686, -0.12343896925449371, 0.0947858989238739, 0.058695532381534576, -0.05006280541419983, -0.06281639635562897, 0.09194079786539078, 0.14434956014156342, -0.07003369182348251, -0.11551906913518906, 0.1644493043422699, -0.13461585342884064, 0.004687951877713203, -0.07805342972278595, 0.03067689947783947, -0.11194120347499847, 0.10928235203027725, 0.12615007162094116, -0.12779153883457184, 0.05824515223503113, 0.023858193308115005, 0.1684161126613617, -0.1351078599691391, -0.11174044013023376, -0.03904825448989868, -0.13071703910827637, -0.060336120426654816, -0.09857454150915146, 0.019055096432566643, 0.06397324800491333, -0.026270614936947823, 0.06744684278964996, 0.11179225891828537, -0.15520429611206055, -0.08872269839048386, 0.17186468839645386, 0.1172657459974289, -0.16740760207176208, 0.10310859978199005, -0.16306248307228088, 0.12580126523971558, 0.09875880926847458, 0.036350350826978683, -0.16311122477054596, -0.10825594514608383, 0.1737637221813202, -0.12599049508571625, -0.15694445371627808, -0.15652509033679962, -0.004415430128574371, 0.08568458259105682, -0.10175557434558868, 0.12604254484176636, 0.1300327628850937, -0.09138431400060654, -0.09123598039150238, 0.09352666139602661, 0.11121825873851776, 0.029525574296712875, 0.08777833729982376, 0.04352563992142677, -0.11831800639629364, -0.15490251779556274, -0.14116360247135162, -0.1765994280576706, -0.11391713470220566, -0.09889083355665207, -0.019105546176433563, -0.1269489973783493, 0.16112609207630157, -0.10162156820297241, 0.05519123375415802, -0.15557235479354858, -0.03364169970154762, -0.11801446229219437, 0.15608172118663788, -0.08109179884195328, -0.04781203716993332, 0.13861387968063354, -0.005582371260970831, 0.1204783245921135, -0.08726877719163895, -0.11028557270765305, 0.13227248191833496, 0.0892835259437561, 0.07293520122766495, 0.12792909145355225, 0.024643894284963608, 0.08883339911699295, -0.08826382458209991, -0.03649889677762985, 0.15567046403884888, -0.13828879594802856, 0.0035168593749403954, -0.1256306767463684, 0.10394828766584396, 0.1717233955860138, 0.11566624790430069, 0.04693399369716644, -0.1130412146449089, -0.03015335090458393, -0.15626318752765656, 0.04180179163813591, 0.11850052326917648, -0.013598280027508736, -0.016245903447270393, 0.08725765347480774, -0.09018190205097198, 0.16081249713897705, 0.02072031795978546, -0.06367720663547516, 0.06711491197347641, 0.05169186368584633, -0.02654743567109108, 0.1457459032535553, -0.17494766414165497, 0.1722787320613861, -0.14520151913166046, 0.02544533833861351, -0.046983007341623306, -0.018810981884598732, -0.01551223173737526, 0.12396881729364395, -0.08198107779026031, 0.11040400713682175, 0.006840559653937817, 0.018749678507447243, 0.027240034192800522, 0.04351639002561569, 0.018865814432501793, -0.16978619992733002, -0.14372211694717407, 0.11745226383209229, 0.10314948111772537, 0.051338084042072296, 0.012224419042468071, -0.06221631169319153, 0.14193926751613617, 0.15427514910697937, 0.10173490643501282, -0.09757315367460251, 0.06796790659427643, 0.015345856547355652, 0.057307932525873184, 0.11308066546916962, 0.16410592198371887, 0.041787441819906235, 0.10366668552160263, -0.09090455621480942, 0.10853468626737595, 0.05117369070649147, 0.16618043184280396, 0.009340689517557621, 0.16052892804145813, -0.013769291341304779, 0.027187097817659378, 0.1431397944688797, 0.12277667224407196, 0.14870207011699677, -0.10136023908853531, -0.11779182404279709, -0.11864980310201645, -0.05745500326156616, 0.16925060749053955, 0.14869144558906555, 0.06541570276021957, -0.01962871477007866, 0.07512134313583374, 0.07125476747751236, -0.17207953333854675, -0.003550471505150199, 0.09694436937570572, -0.029093315824866295, -0.16966485977172852, -0.024914497509598732, 0.13781465590000153, -0.045823127031326294, -0.16602756083011627, 0.1665554940700531, 0.03031308762729168, 0.038663264364004135, 0.030628429725766182, 0.057480715215206146, -0.11848709732294083, -0.16885532438755035, -0.022367162629961967, -0.014347903430461884, -0.16366244852542877, 0.16601046919822693, -0.10336408764123917, -0.17056496441364288, 0.01329334732145071, -0.04315946623682976, -0.0409272238612175, -0.1433221846818924, 0.09676345437765121, -0.11146073043346405, -0.01981230638921261, 0.12322060763835907, 0.12559691071510315, 0.16060900688171387, -0.09817029535770416, 0.10448378324508667, -0.08437168598175049, -0.15023189783096313, -0.006903990637511015, 0.04415187984704971, 0.1357843279838562, -0.11648804694414139, -0.002605012385174632, 0.01226123422384262, -0.10138072073459625, 0.1398698389530182, -0.1269753873348236, -0.1686861366033554, -0.01582201011478901, 0.0351763479411602, -0.1507871150970459, 0.17151089012622833, 0.11126696318387985, -0.08046547323465347, -0.09258385747671127, -0.013394183479249477, 0.15283717215061188, -0.032295506447553635, 0.08941350132226944, -0.0922865942120552, -0.003531969152390957, 0.15040698647499084, 0.04452182352542877, 0.05985058844089508, -0.07484382390975952, -0.001799375400878489, 0.16277959942817688, -0.043707966804504395, -0.0511336512863636, 0.1635395735502243, -0.007830020040273666, 0.15862324833869934, 0.03689069300889969, 0.07217921316623688, 0.05379528924822807, 0.17406883835792542, -0.10275959968566895, 0.06908123195171356, -0.10715556144714355, 0.12887325882911682, 0.16272404789924622, 0.10509929805994034, 0.06213100627064705, 0.15803655982017517, -0.003222948405891657, -0.06318796426057816, 0.027478881180286407, -0.042581383138895035, 0.09001091867685318, -0.03252284601330757, -0.16330072283744812, 0.026943553239107132, 0.13700473308563232, -0.11091086268424988, 0.14647787809371948, -0.0949590802192688, -0.12161852419376373, 0.06838463246822357, 0.03380362689495087, -0.04413900151848793, 0.1540943831205368, -0.03998007997870445, 0.10810936242341995, -0.0006487453356385231, 0.1482434719800949, -0.1032823920249939, -0.0483800508081913, 0.06223635375499725, -0.018981359899044037, -0.05782672017812729, -0.1205228939652443, 0.11390086263418198, 0.09377389401197433, -0.03471275418996811, 0.14329081773757935, -0.030081406235694885, 0.06011679023504257, 0.015994369983673096, 0.12548385560512543, 0.049252089112997055, 0.08731606602668762, 0.05956948921084404, 0.12051986157894135, -0.025397922843694687, -0.07881797850131989, 0.07875846326351166, -0.11315788328647614, -0.17669320106506348, -0.09710073471069336, -0.15957240760326385, -0.11795496940612793, -0.03529572859406471, 0.007343203295022249, -0.07773128151893616, -0.05335259810090065, 0.09729616343975067, -0.021663058549165726, 0.0618818998336792, -0.12215433269739151, -0.17356476187705994, -0.12370242923498154, 0.00783876609057188, 0.06878747045993805, 0.05392708256840706, -0.024237345904111862, 0.13606750965118408, -0.14307574927806854, -0.11483804136514664, -0.07074221968650818, 0.08888683468103409, -0.0709715187549591, 0.02362680621445179, -0.17620587348937988, -0.03852348402142525, 0.15091517567634583, -0.03893643990159035, -0.1518888771533966, 0.06693201512098312, -0.11966113746166229, 0.04207977280020714, -0.07207083702087402, 0.16147205233573914, -0.08204218745231628, -0.026419857516884804, -0.02095891162753105, 0.03739609569311142, -0.04120659455657005, 0.13372008502483368, 0.04727793112397194, 0.030039744451642036, -0.024118322879076004, -0.0046620736829936504, -5.072373096481897e-05, 0.10506739467382431, -0.17561177909374237, -0.0322294645011425, -0.004967595916241407, -0.0050659459084272385, 0.1235017254948616, -0.03477409854531288, 0.027452390640974045, 0.068351611495018, 0.13526573777198792, 0.010819179937243462, -0.06902091950178146, 0.11939862370491028, 0.041882503777742386, 0.16456741094589233, -0.16724827885627747, -0.08156003057956696, -0.15935295820236206, 0.04825190454721451, -0.1271308809518814, 0.0896831601858139, -0.16778774559497833, 0.005877272691577673, -0.049253690987825394, -0.13956397771835327, -0.05919695645570755, -0.05722812935709953, -0.12210843712091446, -0.04936666786670685, -0.07866159081459045, -0.0018954069819301367, -0.15716519951820374, 0.08113735914230347, -0.0326266773045063, 0.11217176914215088, -0.1668100208044052, -0.043128762394189835, 0.12571026384830475, -0.10679526627063751, 0.16617323458194733, -0.056387465447187424, -0.040073834359645844, 0.027834199368953705, -0.13792559504508972, -0.15413855016231537, 0.045778051018714905, 0.03593248501420021, 0.078973688185215, -0.1212618350982666, -0.1347993016242981, -0.12614229321479797, -0.17458678781986237, 0.0630677193403244, -0.1260831207036972, -0.1418209671974182, -0.011414715088903904, -0.11948557943105698, 0.03638063371181488, 0.1534307599067688, -0.1557798534631729, 0.0006873729289509356, 0.006473524030297995, -0.03402211517095566, 0.09825661033391953, 0.0598096027970314, -0.02408871427178383, -0.09106011688709259, -0.018130162730813026, -0.07386787235736847, 0.09792935848236084, -0.06510284543037415, 0.10667421668767929, 0.16957877576351166, -0.05019401013851166, 0.017546027898788452, 0.05955193564295769, -0.172573983669281, -0.1208055317401886, 0.11876943707466125, 0.0732659101486206, 0.17124904692173004, 0.10410414636135101, 0.15166939795017242, -0.06965601444244385, -0.09762295335531235, -0.11346026510000229, -0.14744339883327484, -0.04650221765041351, -0.13436853885650635, 0.06704644858837128, -0.14250145852565765, -0.0950518250465393, -0.14124548435211182, -0.017303388565778732, 0.15799152851104736, -0.012571118772029877, -0.108549103140831, -0.0802212804555893, -0.06695928424596786, -0.17135903239250183, 0.11168048530817032, 0.16518068313598633, -0.11671273410320282, 0.12037607282400131, 0.02622140757739544, -0.11439374834299088, 0.1389097273349762, -0.12708783149719238, -0.055409323424100876, -0.1113002598285675, 0.09514737129211426, 0.1007595807313919, 0.004834959749132395, -0.1720048487186432, -0.11864858120679855, -0.11771342903375626, -0.010336514562368393, -0.0547187477350235, 0.0015231238212436438, 0.0944707915186882, 0.051671721041202545, -0.08667212724685669, 0.14821389317512512, 0.0901106745004654, 0.14351890981197357, 0.1272742748260498, 0.13722050189971924, 0.0161055326461792, -0.13400238752365112, -0.03998519852757454, 0.16971468925476074, 0.15271250903606415, 0.011991726234555244, 0.07832740992307663, -0.12705573439598083, 0.1303112506866455, 0.1646765023469925, -0.09907309710979462, 0.06707428395748138, 0.160592719912529, 0.07316286116838455, -0.16407038271427155, -0.0985942929983139, 0.07502429932355881, -0.11542829126119614, 0.0413457415997982, 0.1104041337966919, -0.022425135597586632, 0.0735139474272728, -0.07961724698543549, 0.1718045026063919, 0.08166556805372238, 0.14325842261314392, -0.023428505286574364, 0.0857018455862999, 0.07346714287996292, -0.12460599839687347, 0.06194024905562401, 0.07569369673728943, 0.1097804605960846, -0.030583038926124573, 0.17183801531791687, 0.06096354126930237, 0.17614440619945526, 0.06553877145051956, 0.14312081038951874, -0.1537102311849594, -0.03517856076359749, -0.1140415295958519, -0.040805883705616, 0.16112355887889862, 0.07181163132190704, 0.13711333274841309, -0.14187604188919067, 0.005676232278347015, -0.10788008570671082, -0.10884775221347809, -0.07200531661510468, -0.02416917309165001, -0.16787439584732056, -0.1727651059627533, 0.17475992441177368, -0.0944543331861496, -0.16584119200706482, -0.11085660010576248, 0.0445031076669693, -0.00432222243398428, 0.025769278407096863, -0.08535105735063553, -0.01411146018654108, 0.005834619980305433, 0.14963658154010773, 0.09339060634374619, 0.013857082463800907, -0.17644420266151428, 0.025950320065021515, 0.0072732605040073395, 0.10987670719623566, 0.04710099846124649, 0.06870915740728378, 0.04504844918847084, -0.12830524146556854, 0.012806741520762444, 0.07923737913370132, -0.0883912742137909, 0.07690147310495377, 0.016190944239497185, 0.13013732433319092, 0.019992230460047722, 0.15606389939785004, -0.14275334775447845, 0.09559062868356705, 0.14687171578407288, -0.006560219917446375, 0.07459519803524017, 0.087047278881073, -0.07762176543474197, 0.10416979342699051, -0.16484002768993378, -0.06625134497880936, -0.07446932792663574, 0.06883669644594193, 0.11075302213430405, -0.12811852991580963, -0.027643105015158653, 0.1302996277809143, -0.11779504269361496, 0.03998401761054993, 0.003239322453737259, -0.14925988018512726, -0.03804119676351547, 0.11730965971946716, 0.10370560735464096, 0.17353606224060059, 0.05412808060646057, -0.13938362896442413, 0.08275189995765686, 0.09607873111963272, -0.029787873849272728, -0.1527308225631714, 0.11316738277673721, -0.11485911905765533, 0.17160914838314056, 0.1446061134338379, 0.0679391622543335, -0.056625280529260635, 0.061180826276540756, 0.07530223578214645, 0.06450994312763214, -0.04882967472076416, 0.11020348966121674, 0.1608899086713791, 0.072598896920681, 0.15659663081169128, -0.08633280545473099, 0.08846618980169296, 0.043992772698402405, -0.07118924707174301, -0.051040612161159515, 0.17420920729637146, 0.006705226376652718, -0.16300304234027863, 0.14510059356689453, -0.027395935729146004, -0.16986365616321564, -0.16313230991363525, 0.08644533157348633, 0.16441750526428223, 0.10823731869459152, -0.1696641743183136, 0.0924779400229454, 0.047383762896060944, -0.11250985413789749, 0.014735676348209381, -0.1599595993757248, -0.030092934146523476, 0.09089265018701553, 0.13165558874607086, -0.09243901818990707, 0.175211101770401, -0.16362923383712769, 0.05530199408531189, 0.07489421218633652, -0.015644719824194908, -0.04874447360634804, 0.06832503527402878, 0.16148410737514496, -0.13607577979564667, -0.12181397527456284, 0.14709800481796265, -0.16810518503189087, 0.06370742619037628, 0.13678786158561707, -0.11954239010810852, -0.09850801527500153, -0.010234055109322071, -0.01024410780519247, 0.1253267526626587, 0.11206600069999695, 0.08618766814470291, 0.09800103306770325, 0.10846613347530365, -0.04653056338429451, -0.1455589085817337, 0.08655183762311935, 0.009983787313103676, 0.022093651816248894, -0.09272114932537079, 0.08573514223098755, 0.04434175044298172, -0.11228596419095993, -0.10759872943162918, 0.11672621965408325, 0.15822583436965942, 0.08049021661281586, 0.13897353410720825, 9.200657223118469e-05, 0.05169985070824623, 0.10646580159664154, -0.12268226593732834, -0.0641816183924675, -0.1558300107717514, -0.07824328541755676, -0.13045254349708557, 0.15902483463287354, -0.11916829645633698, -0.03298555687069893, -0.014316420070827007, 0.1490539312362671, -0.09154462069272995, 0.14557130634784698, 0.08066820353269577, -0.15248042345046997, 0.0042940895073115826, 0.10223830491304398, 0.009619027376174927, 0.14645226299762726, -0.12635551393032074, 0.14136357605457306, -0.05099739134311676, 0.026457136496901512, -0.07784463465213776, 0.054287564009428024, 0.11672533303499222, 0.04030056297779083, 0.07784160226583481, -0.09099700301885605, 0.05526556074619293, -0.06943324208259583, 0.04721776768565178, -0.10174750536680222, 0.15404336154460907, 0.10336430370807648, -0.10633548349142075, 0.10304374992847443, 0.12473302334547043, 0.15182086825370789, 0.07282136380672455, -0.02524842694401741, -0.122658371925354, 0.12805144488811493, 0.0876186192035675, -0.009808962233364582, 0.11103644222021103, 0.1620756834745407, -0.15555214881896973, -0.03937647119164467, 0.046588554978370667, 0.09265849739313126, 0.034403059631586075, -0.1093197762966156, 0.03444453328847885, -0.1725381314754486, -0.06305263191461563, -0.06526108831167221, -0.14954189956188202, 0.10182107239961624, 0.016616815701127052, 0.06979138404130936, 0.16233785450458527, 0.13427545130252838, 0.11627025902271271, -0.07406524568796158, 0.1640821099281311, -0.15292884409427643, -0.08705878257751465, -0.12473425269126892, 0.03434929996728897, 0.1757519692182541, 0.07014404982328415, 0.16052767634391785, 0.126753568649292, 0.12809327244758606, 0.0282632764428854, -0.15933562815189362, 0.10125809907913208, 0.02827431820333004, 0.15846838057041168, -0.12582993507385254, 0.0035910799633711576, -0.12930890917778015, 0.10936249047517776, 0.16102668642997742, 0.043204985558986664, 0.164484441280365, 0.16486074030399323, 0.03143060952425003, 0.0017376091564074159, -0.06132640317082405, -0.018442174419760704, -0.07265296578407288, 0.035371195524930954, 0.11734384298324585, -0.06392650306224823, 0.09242299944162369, 0.10907155275344849, 0.022126104682683945, -0.003586359554901719, -0.1560349017381668, 0.10435544699430466, 0.008870857767760754, -0.04073602333664894, -0.10510268807411194, -0.012786595150828362, -0.0724254623055458, 0.01621340773999691, -0.09021908044815063, 0.1528599113225937, -0.04191497713327408, -0.17288030683994293, 0.05267173796892166, -0.1593308299779892, 0.17646834254264832, 0.15633371472358704, -0.11359281092882156, 0.1352846771478653, -0.17064833641052246, -0.11862383782863617, -0.09963706880807877, -0.1573970913887024, -0.1154494434595108, -0.0166547279804945, 0.1703912764787674, -0.1400240957736969, -0.07591480016708374, 0.00046848328202031553, 0.12644074857234955, 0.01605881378054619, -0.1392858922481537, 0.09315598011016846, -0.1325521171092987, 0.17377257347106934, 0.0286838598549366, -0.14945021271705627, 0.05505988374352455, -0.1210295632481575, -0.06971556693315506, -0.1613403856754303, -0.1535177230834961, 0.021587636321783066, 0.11624918133020401, 0.05053969845175743, 0.0793754979968071, 0.013725732453167439, 0.17233158648014069, -0.06759306788444519, 0.14891816675662994, -0.11577589809894562, 0.1700185090303421, -0.13030026853084564, -0.13022661209106445, -0.14766211807727814, 0.06255882233381271, 0.1034637913107872, 0.11274658888578415, -0.17182329297065735, 0.033097244799137115, -0.16932299733161926, -0.10686919093132019, 0.006049063056707382, -0.033169567584991455, 0.1741475909948349, -0.12903723120689392, 0.1750861257314682, -0.15044395625591278, -0.11416925489902496, -0.16372589766979218, -0.0883781909942627, -0.05947320535778999, -0.04430316388607025, -0.10874085128307343, -0.019010799005627632, -0.03898397833108902, -0.08474152535200119, 0.060644276440143585, 0.13020269572734833, 0.06587008386850357, -0.1375167816877365, -0.17125636339187622, 0.06924687325954437, -0.07966536283493042, -0.09239839017391205, 0.17355340719223022, 0.12926803529262543, -0.0646536648273468, -0.13855212926864624, -0.12749060988426208, 0.13673727214336395, 0.036996230483055115, -0.03522593528032303, 0.002727491082623601, 0.06462448090314865, 0.09378183633089066, -0.13419640064239502, 0.03591075912117958, -0.1315774917602539, 0.1499667912721634, -0.14081647992134094, 0.1254560798406601, -0.1613001823425293, 0.15342719852924347, 0.04875677824020386, -0.10920412838459015, -0.061027538031339645, -0.07788128405809402, 0.13620059192180634, -0.01804666966199875, -0.1011597290635109, -0.013228441588580608, 0.10471057891845703, 0.05491393059492111, -0.05174636095762253, -0.08290647715330124, 0.04673666134476662, 0.09935413300991058, 0.021004829555749893, -0.12127618491649628, 0.040672823786735535, -0.022628599777817726, 0.04548338055610657, 0.006390620954334736, -0.04426304250955582, -0.14438048005104065, 0.10365701466798782, 0.1733284741640091, 0.14763815701007843, 0.038204073905944824, 0.01171633880585432, 0.0054367538541555405, -0.13145555555820465, -0.1610850989818573, -0.0658574029803276], "trunk.2.bias": [0.07255573570728302, -0.06635285913944244, 0.12966062128543854, -0.16092009842395782, -0.10477583855390549, -0.12022142112255096, 0.09697557985782623, -0.1561805158853531, -0.1144249215722084, -0.1431257575750351, 0.11990011483430862, 0.001319976057857275, -0.11084344983100891, 0.16621309518814087, 0.05925631895661354, -0.08560401946306229, 0.030344845727086067, 0.03255784884095192, -0.04297406226396561, -0.06095511093735695, -0.06593219190835953, -0.01914297230541706, -0.12236429005861282, 0.15244455635547638, -0.007575706113129854, -0.018669409677386284, -0.01442844606935978, 0.00016310829960275441, -0.12397198379039764, 0.017102684825658798, 0.09847842901945114, 0.04583326354622841], "policy_head.weight": [0.13210448622703552, -0.1563795804977417, -0.15874099731445312, -0.09213682264089584, -0.037490442395210266, -0.03072163835167885, -0.04701339825987816, -0.01254618912935257, 0.14968128502368927, -0.17329175770282745, -0.13819536566734314, -0.0536428838968277, 0.004774690140038729, 0.07742432504892349, -0.025207629427313805, 0.07135366648435593, 0.15737704932689667, 0.1655905842781067, -0.06525041908025742, -0.006360254250466824, -0.016729580238461494, 0.06796322762966156, 0.17022466659545898, 0.16153819859027863, 0.0075736199505627155, 0.10729540139436722, 0.01703817956149578, -0.15405751764774323, -0.007450930308550596, 0.009952008724212646, -0.004901910200715065, 0.038881585001945496, -0.08066436648368835, -0.10920385271310806, 0.144254669547081, 0.0212567001581192, -0.16621321439743042, -0.10800331830978394, 0.0768146961927414, 0.07767299562692642, 0.06066541373729706, -0.12017566710710526, -0.06694040447473526, -0.005118713714182377, -0.05099671706557274, 0.12223900854587555, -0.16381339728832245, 0.11190133541822433, -0.0865723192691803, 0.1291968673467636, 0.12600579857826233, -0.023566240444779396, -0.0015817501116544008, 0.10052697360515594, 0.06467406451702118, -0.012715176679193974, -0.0857836902141571, 0.08583911508321762, -0.004102595150470734, 0.03902450576424599, 0.0804462805390358, 0.039071224629879, -0.06121797859668732, 0.1416037529706955, 0.03837710618972778, -0.06844300031661987, -0.019573122262954712, 0.04699042811989784, 0.03509153053164482, 0.14203308522701263, -0.016290325671434402, 0.0649096891283989, -0.13445411622524261, 0.023957490921020508, 0.13535183668136597, 0.15293805301189423, 0.03825410082936287, -0.00680772727355361, -0.06991591304540634, 0.11621221899986267, 0.1115095391869545, -0.06420979648828506, -0.1717708855867386, 0.0891614705324173, 0.040327832102775574, -0.05199064314365387, 0.019333917647600174, -0.053530607372522354, -0.13114230334758759, -0.015925271436572075, 0.1107354462146759, 0.027283404022455215, -0.056846510618925095, 0.0015618357574567199, 0.11671759933233261, -0.13847488164901733, -0.07570501416921616, -0.08260124921798706, -0.11982890218496323, 0.08877164870500565, 0.1494407057762146, -0.10673289000988007, -0.07952657341957092, 0.11898349970579147, 0.005116753745824099, -0.051315683871507645, 0.16310729086399078, 0.14094185829162598, -0.03141779825091362, 0.046039827167987823, 0.16725334525108337, -0.02188078872859478, 0.09851475805044174, 0.1172170415520668, 0.12772667407989502, -0.14548927545547485, 0.1325363665819168, 0.09214352816343307, -0.06052689999341965, 0.0296445544809103, 0.02226504124701023, -0.13945668935775757, 0.10280632227659225, 0.03709999471902847, 0.1013588085770607, -0.17168597877025604, 0.06959637254476547, 0.12344326823949814, 0.1641511768102646, -0.14867350459098816, 0.03066037781536579, -0.022926410660147667, 0.09728129208087921, 0.13627029955387115, -0.011954300105571747, -0.07298919558525085, -0.08307623863220215, 0.15616671741008759, -0.05598561838269234, 0.10528499633073807, -0.07490693777799606, -0.17557302117347717, -0.1632949709892273, 0.08628709614276886, -0.1717224419116974, -0.05375472083687782, -0.015147555619478226, -0.10301583260297775, 0.0045433249324560165, -0.04143182560801506, -0.09931424260139465, 0.007522559259086847, -0.09752313047647476, -0.04532769322395325, 0.09970273077487946, 0.00013373194087762386, 0.13210682570934296, 0.11096588522195816, 0.005658108741044998, 0.07701495289802551, 0.020341839641332626, -0.130087748169899, -0.11337314546108246, -0.003408289048820734, 0.09160347282886505, 0.04108826816082001, -0.17116676270961761, -0.020964685827493668, 0.13890229165554047, 0.08518169075250626, 0.12241297215223312, -0.05397384241223335, 0.1617870032787323, -0.07348568737506866, 0.1429813951253891, -0.09257259964942932, 0.07730195671319962, 0.04375843703746796, 0.1338823139667511, 0.03821616992354393, 0.06049143150448799, 0.015389099717140198, -0.12550315260887146, -0.1599295437335968, -0.05182144418358803, -0.02214955911040306, 0.020668266341090202, 0.12221585214138031, 0.09111160039901733, -0.02181723155081272, 0.15710750222206116, 0.13147173821926117, -0.061451368033885956, -0.13749130070209503, -0.0010922144865617156, -0.05650143325328827, -0.12463920563459396, 0.11743428558111191, 0.12331324815750122, 0.015230522491037846, 0.021105539053678513, -0.08989167958498001, 0.0871899425983429, -0.12705759704113007, -0.11833338439464569, 0.12723132967948914, 0.1293753832578659, 0.14869382977485657, -0.017492584884166718, 0.07185040414333344, -0.01978668011724949, -0.02739022485911846, 0.1712380200624466, 0.13632480800151825, 0.17470280826091766, 0.140420064330101, 0.14037570357322693, -0.050328224897384644, 0.08094751089811325, 0.02521062083542347, -0.1136883795261383, -0.02770095318555832, 0.05635707825422287, -0.12221420556306839, 0.16924138367176056, -0.11390029639005661, 0.15538503229618073, -0.012045590206980705, 0.13529610633850098, 0.008589759469032288, 0.0581405870616436, 0.04667171090841293, -0.09186895936727524, -0.1110982894897461, -0.15608546137809753, 0.12868110835552216, -0.06459183245897293, -0.13881820440292358, -0.17536738514900208, -0.16920530796051025, -0.010544909164309502, -0.07302651554346085, -0.04863760992884636, -0.1662343591451645, -0.09849186986684799, 0.08813460171222687, -0.03496234863996506, 0.06360644102096558, -0.0008415039628744125, 0.17346049845218658, -0.011216414161026478, 0.15484197437763214, 0.026264123618602753, -0.052497249096632004, -0.017584949731826782, 0.12145865708589554, 0.08869770169258118, 0.08807521313428879, 0.11812848597764969, -0.17178353667259216, 0.14585262537002563, -0.08378243446350098, 0.09683046489953995, -0.008217117749154568, 0.11964210867881775, 0.13433976471424103, -0.04459652677178383, -0.06594698131084442, -0.0428960919380188, 0.05033526197075844, 0.15724697709083557, 0.12985403835773468, -0.15143948793411255, -0.09249892830848694, -0.06407671421766281, 0.1585436463356018, -0.08889395743608475, 0.003341507399454713, 0.11833534389734268, 0.12783727049827576, 0.08879221975803375, -0.146768257021904, 0.10152663290500641, -0.018162783235311508, 0.05301346257328987, -0.13474547863006592, 0.05399323254823685, 0.12428513169288635, -0.15417815744876862, -0.0035441494546830654, -0.028009826317429543, -0.01062760129570961, -0.12963752448558807, -0.16792897880077362, -0.14284689724445343, -0.08827687054872513, 0.10783882439136505, 0.1480301171541214, -0.13844093680381775, 0.17472900450229645, 0.0189872607588768, -0.090602807700634, -0.1613558530807495, 0.018992191180586815, -0.1125430017709732, 0.07953529804944992, -0.024246491491794586, 0.11605488508939743, -0.140819251537323, -0.0009770692558959126, 0.07533411681652069, 0.054055314511060715, -0.14674316346645355, -0.08258723467588425, 0.06975971162319183, -0.05145331472158432, 0.06345734745264053, -0.06160375103354454, 0.05454893782734871, 0.01724396087229252, 0.014295767992734909, -0.15520530939102173, 0.02652832120656967, 0.1136225089430809, 0.020785707980394363, 0.03220139443874359, -0.06023764610290527, 0.11930139362812042, -0.12244930118322372, 0.08476658165454865, 0.08885116130113602, 0.15874047577381134, 0.12414419651031494, -0.08507229387760162, -0.009488435462117195, 0.03237335383892059, 0.13936428725719452, -0.05874962732195854, 0.06610024720430374, -0.17073675990104675, 0.03062940016388893, 0.11924242973327637, -0.008234882727265358, 0.16403159499168396, 0.17213083803653717, -0.08681066334247589, 0.017036324366927147, -0.17383363842964172, 0.011854116804897785, -0.03640252724289894, 0.1430203765630722, 0.06597437709569931, 0.1051461398601532, -0.09159944951534271, -0.05605665594339371, -0.02990451641380787, 0.09522464871406555, 0.06159205362200737, -0.17658241093158722, 0.09832984209060669, 0.12257217615842819, -0.1265886276960373, -0.1543336659669876, 0.11227614432573318, -0.07409999519586563, 0.07945932447910309, -0.06370483338832855, 0.10922475904226303, 0.1170811802148819, -0.044835057109594345, 0.13968802988529205, -0.0707080140709877, 0.012749990448355675, -0.02732240967452526, -0.051248710602521896, -0.060350365936756134, 0.033378638327121735, 0.1637287437915802, -0.09523393958806992, -0.16607961058616638, 0.09093321859836578, 0.1139334887266159, 0.07468720525503159, 0.167356938123703, -0.006086826790124178, -0.13482221961021423, 0.0019860859028995037, 0.00467402208596468, 0.06966610252857208, 0.13828745484352112, 0.11854079365730286, -0.05358636751770973, 0.007256148848682642, -0.08898065984249115, -0.007602490484714508, -0.07685867697000504, -0.11784426867961884, 0.14887434244155884, -0.04922560229897499, -0.08860630542039871, -0.10276813060045242, -0.08528568595647812, -0.12765218317508698, -0.13341426849365234, -0.11107822507619858, 0.05276956036686897, 0.096701979637146, 0.09450627863407135, -0.15645508468151093, -0.05819788575172424, 0.07701906561851501, -0.01852939836680889, 0.02551846206188202, 0.05088565871119499, -0.03165636956691742, 0.10031761229038239, 0.13040129840373993, 0.029382316395640373, -0.11244475841522217, 0.11282656341791153, 0.17661134898662567, 0.07054807245731354, 0.17001114785671234, -0.007223126944154501, 0.16040977835655212, 0.1241406723856926, 0.1703241765499115, 0.1609703153371811, -0.08982224762439728, -0.03739675134420395, 0.12163009494543076, -0.08711510896682739, -0.09897226095199585, 0.033780910074710846, -0.12413585186004639, -0.15522511303424835, -0.08408898860216141, 0.08431892096996307, -0.12859833240509033, -0.09353671222925186, 0.0984264388680458, -0.1294717639684677, -0.014124926179647446, 0.1714712530374527, 0.12956120073795319, -0.06465832144021988, 0.029780477285385132, -0.011426347307860851, 0.09550975263118744, 0.15419615805149078, -0.08537859469652176, 0.028978761285543442, 0.11413275450468063, 0.0215661209076643, 0.05281351879239082, 0.06528294086456299, 0.14924222230911255, -0.1724674254655838, -0.16823633015155792, -0.17231911420822144, -0.10772702842950821, -0.1472419947385788, 0.14928536117076874, 0.03466513007879257, -0.17221912741661072, 0.06903141736984253, 0.1516079604625702, -0.11414803564548492, 0.11824806034564972, -0.050432201474905014, 0.12006836384534836, -0.14893575012683868, -0.045491643249988556, 0.05523063987493515, -0.09248524904251099, 0.07052571326494217, 0.14103585481643677, 0.15234331786632538, -0.0526115745306015, -0.10891261696815491, -0.06004128232598305, 0.10556694120168686, -0.04108407348394394, 0.07991103082895279, -0.13382098078727722, 0.04298479110002518, -0.12449302524328232, 0.02069256454706192, -0.08230145275592804, 0.060344718396663666, -0.007163847330957651, -0.05033494904637337, 0.05682762712240219, -0.1528385877609253, -0.1488625556230545, -0.008101972751319408, 0.17475253343582153, 0.044162143021821976, 0.16246458888053894, 0.09332624822854996, -0.17220574617385864, -0.06959064304828644, -0.024491216987371445, -0.08382613956928253, -0.08775486052036285, 0.07962241023778915, 0.09939539432525635, 0.07224418222904205, -0.17135989665985107, 